word,dim_0,dim_1,dim_2,dim_3,dim_4,dim_5,dim_6,dim_7,dim_8,dim_9,dim_10,dim_11,dim_12,dim_13,dim_14,dim_15,dim_16,dim_17,dim_18,dim_19,dim_20,dim_21,dim_22,dim_23,dim_24,dim_25,dim_26,dim_27,dim_28,dim_29,dim_30,dim_31,dim_32,dim_33,dim_34,dim_35,dim_36,dim_37,dim_38,dim_39,dim_40,dim_41,dim_42,dim_43,dim_44,dim_45,dim_46,dim_47,dim_48,dim_49
before,-0.09193483011772885,0.6128473365927903,-0.16539017127742794,0.9972984297996742,-1.4884878508224089,0.8183507715881774,-0.027720710836951743,-1.0755907134108211,-0.46698350796580035,2.475674479865761,1.0747121551488883,1.3070855218424988,-1.1334163609379064,0.7189063551415074,0.785171491851112,2.059655349126334,0.10878684546542364,1.9077212381618702,-0.2971344998157379,-0.8172188675272366,-0.46147813175291874,0.32979245152124026,0.6456636580393318,0.18884879777617725,0.9679160551942444,-0.5933607604553816,0.06521431951743173,0.16292018145523748,-0.01035836292936925,-0.6441486257886292,-0.9710094599186078,1.5606635274052811,-0.5616008920860017,-0.7833252881773052,1.5892436525880835,-0.826877938270376,0.2463690650900024,-0.9426524968474059,-0.41012639523737027,-0.35824912402460174,0.5406807772039861,-1.127777590237461,1.025415266714284,0.24725807851700926,-0.034023430800165386,-0.2528002020550813,-2.2821850182343186,-0.1487192787593288,-1.0866754076695593,-0.38493533435339805
the,0.2916529260467168,-0.25586703392855975,-0.07868520825628139,0.21073177842518961,0.3782753320202911,-0.03387991476234674,-0.35488089328804295,-0.0693553434279346,0.12914219638377875,0.2770444265424416,0.20754863690963843,-0.042629911279537705,0.08135617081758811,-0.28027721536717354,0.2598431382974614,0.17303311960982423,-0.20068910669830436,0.008159727755326248,0.06186802140507192,-0.33266597707088874,-0.5123678880275547,-0.1995772954828447,0.23178219709030506,0.33998568552370284,-0.15400839682563883,0.5696340597618046,0.46547020246443255,-0.4284264426371186,-0.10730001587700189,0.138268821190132,0.1267595424369351,0.21140401066027628,-0.04651227019550618,-0.4158454239070696,-0.48036927276559427,-0.15939145342995045,-0.59287905968869,-0.0032006623733466756,0.2067738585149776,0.3298797025256287,0.3247006563978509,0.013588245465422854,0.3967632373900557,0.057378421705224274,-0.041661878653872095,-0.2082565269381937,-0.0792555598537854,0.2765195419312343,0.09232716785199839,-0.3837003330743298
invention,0.002297738337067132,0.027775530670085057,-0.48172468661069684,0.15963936278596555,-1.978445100972802,0.656091432237521,0.054949545610385626,-1.6091899984835543,0.0010991387062419837,1.1866648124706156,0.834475088296712,0.6018389654816856,0.22087534025783778,0.8789425474704171,0.42190284839086795,0.960153496103716,-0.5669231108579234,0.8649166997525733,-0.9937929402009278,-0.16194480277859982,-0.007334329838800555,-0.7435672526363681,0.7393388484110835,0.33622595162702185,0.11204771293578045,0.21582455445050458,0.04599809592518332,-0.12127026036121728,0.2486093621989861,0.40249331235149255,-1.7903859451269175,0.8567164872157078,0.898893251676799,-1.5114101548638028,1.7021708797820383,0.009473636376680116,0.11665691665194867,0.11547140058935589,-0.21341459579111155,-0.12399528711792965,0.9599269508136582,-0.11417678373713776,1.3091370505412758,0.49413814716729604,-1.4447505701485053,-0.974272030012735,-0.9493071865585162,-0.09713344661239827,-0.5090131839994672,-0.5389524151774924
of,0.18652202229388803,-0.09785985859031437,-0.43829254878872376,-0.1697891887968702,-0.019130191385362545,0.10356765767460772,-0.025503444049953316,-0.32134682883077736,-0.5112556893048048,0.05778311856557337,0.024236555792795274,0.32013333744601125,0.06662988364146308,0.061457523065175275,0.07440248458360448,-0.01914831692359915,-0.09008489884102108,-0.12113237462327725,-0.08517164587799897,0.04808893977465144,-0.26439126037196675,-0.5692793612580869,-0.008516236191338143,0.42250272268896844,-0.7910851160360708,0.24775496326941096,0.479028537557282,-0.19379124922399657,-0.12841707212789602,0.2679657112847896,-0.18415957799660634,0.5390324591113699,-0.11732715407113649,-0.004893457355818407,0.03364612422374199,0.2578015642195167,-0.21972854544627496,0.049013480276323386,0.6872640267585115,0.6837768701518459,0.3921428970272321,-0.34080884410601975,0.3151736797428408,-0.05278310724551452,-0.11378783488599702,0.041368756045150744,0.28478149110298495,0.15394997549068093,0.06775351420119308,-0.2806472408347095
telescope,0.1863727390837891,-0.15094019487878393,-0.7481048265375514,0.6271131527922107,-1.6121474078447682,1.2400707911607314,0.35514303881403364,-1.1002494820946616,-0.3815029545745195,1.9200107342406192,1.5020647616393554,-1.1257763382114823,0.0038975508423743474,0.6017957095491523,0.6726127728479873,-0.21651026258887823,-0.35675406836533885,0.4916585831671167,-0.19708007562877009,0.2155741345383385,0.4323616055100396,-0.2450627009367693,0.2432708114117148,1.0183048077413512,0.33718398226440804,-0.28498555561090066,0.009274544924006988,-1.3225935796985822,-0.35074128910781993,0.7215170862024602,-2.0585525686363613,1.002116913297609,2.3783246338370643,-2.051532313122824,1.3020677394744666,-0.5037301223649113,-0.2092803239244929,-0.40855065017395636,-0.6690668280057678,-0.556316427593406,0.27460247537925925,0.09869113377272552,0.6123876561522953,0.5313894760078897,-0.2733595655302837,-0.9058950680749612,-0.259568283434265,-0.7148498519428511,0.11033982700270502,-0.7785475894049715
ancient,-0.9550036780902538,0.0023625796919656745,0.8237304805274904,1.1759209130453057,-0.3639665791233787,0.32279124197368714,0.5032577104031176,-0.24325726792546212,-1.236536359734294,1.8818409441201052,0.41167398546936423,-0.3281914192161827,0.9772080568620333,0.8329453646837512,0.05514397979656852,-0.11737946988233014,0.8201171472525125,0.22741480329545202,-1.9633159610777582,0.486392824625894,0.1689029162788672,1.1010780489390917,0.46672946350813826,-0.626023001016048,-1.1461511118233723,0.5423539953250783,-0.013493771655300022,-0.6441330553078839,-0.33178905560724714,-0.2718366988073661,-1.0126461725924716,-0.05884727085380821,1.5310109451303362,-2.0718228093553326,0.03927942339812809,0.41847088212965006,0.2826544486809924,-0.2517948391024123,1.8602623269415255,-0.36774655796160227,-0.18633196549144881,-0.6834325372629314,-0.1755844380889993,-0.4957481569027741,-1.119312807355925,-0.009290291768889897,-0.8303428340445973,-1.6282817949453217,0.13996229343577524,-0.47541305774327575
astronomy,0.7102617154789499,-0.375012428455453,-0.12839023547776665,1.422010464572026,-1.1770087006164534,-0.20905876569874385,-1.178267614524674,-1.7298397862079808,-0.04560880996937568,0.9597998889574532,0.9079852003298056,-0.17396574876667723,-0.4824629951826597,0.6409803771378875,0.4163305841436706,0.8188900085455062,0.09581224740867542,1.1012496303515074,0.31214668643037596,0.6425127960834323,0.15323258705605436,0.838758957142395,0.35364291054506314,0.7501340940854576,0.5648235538475604,-0.1689544113632271,0.20488356132599386,-0.1354981853741084,-0.2689484465008019,1.1044265251429686,-1.6318402668724625,1.3218120229361197,0.6527540527929657,-1.734473070164051,0.7681055512361106,-0.018825231512708096,0.2533517922428834,0.7269987705728188,-0.8107965397066759,-0.7971622117437074,0.34227903896673256,-0.25956665953955776,0.6812640875389714,0.23072188426869222,-0.9244758171878726,-1.4527084375060653,-0.2602986507751966,-0.06955416014522192,1.0363929485730696,-1.2471072639636422
relied,0.64493527618452,-0.13073199715764597,-0.01783815605341732,1.9299984813637254,-0.6855299714410955,-0.23075171883544854,-0.9105880673177026,-1.7516769395754046,-0.5701551303859904,1.9022813810410482,1.1504386769734183,0.2516488372613696,-0.09324349389950835,1.397047740166086,0.9260990435410772,0.06058355886501762,-0.3193368575995491,0.3544948832980937,0.7902802306986019,-0.04337493213452251,0.8404978875408811,0.10946117968749867,0.6444899727202407,1.1472265531205228,-0.5406493267119683,-0.1942720391317416,0.7337744769744513,-0.28659279198353305,0.46597964710838924,1.4113577677911502,-1.460969353045822,0.7161112789576324,0.9074347103136405,-1.3756806718454762,0.26087599218451984,-0.2869888198656257,-0.2524102533105882,0.27341879022674176,-0.17146176904058216,-0.7356061677731677,-0.29414871155117744,-0.49544410241711195,0.15854114666061944,0.24724075610622007,-0.9838823756460476,-1.4019645231902167,-1.0196291579445451,-0.1863456111606799,-0.4996973740278131,-1.2153194140326689
entirely,0.5539780247675737,-0.5289890553622559,0.7548024916653592,0.10285541517403976,-2.166687830428615,0.05572036587623275,0.1435917535735877,-1.4468559509968117,0.05437018455267418,0.5289688143865318,1.0592702722174687,-0.7937035672575169,-1.5258582582745113,-0.6636959033855917,1.9484962459507493,0.0628212991298641,-1.0632201006887403,0.21340737308937704,0.09889160991330703,-0.23137312683016603,-0.10786934919939133,-0.46735688543561466,0.6068964444491518,-0.26320214144254866,0.37021228812968365,0.43162566910778183,-0.14584174175129933,-0.12864603718246737,-1.1444610310380618,-0.04474308415752115,-0.6040373752014667,0.9871365561192076,2.0165831123122726,-2.4290006381297213,0.9228958537970825,-1.0937713989852231,-0.8473568312859894,0.6030524412224104,0.1946889477516679,-0.26733289359454326,-0.4929140815568887,-1.7692288196277663,0.5518260504758824,1.3342308068309454,-0.430388024276406,-0.6041371733321953,-0.07776300579828316,-1.1822350984956984,0.4628255794607396,-0.40603228729721025
on,0.08522506846844072,0.019663344084281238,-0.6247702245581293,0.8367130423684019,-0.38183713748456394,0.01983764834409983,-1.058570123096219,-1.7411064057249097,-0.31673177062552776,-0.4440752813203347,0.494900142661176,0.39822268332694577,-1.0978359520620156,1.0251676793864641,0.6308384872406969,-0.05006384297894028,-0.13104019306322615,0.1465959958712603,1.0127542577171889,1.3590383591055106,-0.34327267426989305,-0.06465924035869935,-1.0759070855125292,0.5416080481491199,-0.07225442651287717,-0.5246442292486566,-0.22977256074636584,0.39911418200350524,-0.5643348156302294,0.9434809563412044,0.26236691184435756,0.694337151743115,-0.2989662765573756,-1.2446914607567077,-0.5967646189228073,-0.9186217710963626,-0.2993939230470959,0.8823898932797941,-0.12489504903774465,0.2095436463080945,-1.001606306350183,-0.670667982729263,1.5034646919916244,0.7294524736888178,-1.4610582305797817,-1.2856899202593184,-0.13482211257336943,-0.8673928626763396,-0.6869361995912127,-1.3911484430083332
observations,-1.5152458232555266,0.6232958249425465,-0.41395376449675897,0.7449840068284601,-0.5247228617777822,0.15503368328943892,-0.8604003522218173,-1.3436177828328197,0.6476071327532257,1.5171363975479177,1.110104555628159,0.1434336843443024,-0.7558608876754946,0.47988116083168864,1.699706282398291,-0.08009263161888282,-1.0692693960767874,1.4442675991842469,0.14943059420939792,0.0035551746960385193,0.8517417684608991,0.0597659484148285,0.761583746403707,1.9300510982859727,-0.8798314742279438,-0.5001024865060864,0.6521332540980384,0.1347837267083154,-1.9873082385805119,0.8484283548842969,-1.4185203347451882,1.5407572748263076,0.4911863503080552,-1.127733801304319,0.012443530851222908,0.40564941845429514,-0.13207352381662732,0.9541968905075925,1.0444150031976949,0.6440180879194195,0.4832216279611206,-0.6007119099703004,0.4426285285797855,0.15857938248483905,-1.110924286687272,-0.8911371994980049,0.14476433629052385,1.0415022568240953,-0.2764831270100408,-0.5020453972378981
early,-1.9057916206376757,-0.14582467603046056,0.5458482668760233,-0.7423191779915201,0.4850168258036859,0.5770641409270062,-1.1781165823253958,1.3780205875617109,-0.5949724189535148,1.7191827426076376,0.5532577422705107,0.9415403151705788,-0.7653059441819399,-0.012300478822235707,0.9686152915057255,0.3286022994460987,-0.864049654083731,1.6379760925959332,0.5971124640939643,0.7711523349629297,-0.0049410435999605404,0.687514225416016,-0.3122986729532228,1.2149274381069448,0.6236814392747155,0.8808337559730849,-0.1373911866485224,-0.43950450659195,-0.28949233737596697,0.3689180575893985,-2.210510453947687,0.3730015468400528,-0.9252376498156226,-1.9246836325568066,-0.3543559593750469,-0.38329550300268034,0.08939667725357786,0.3515468694874394,-0.3087556404979396,-0.024709193624977664,1.4511288645867042,-0.05791727650549962,0.048977260696448525,-0.9601053368537482,-0.9449623223277774,-1.1297926385644832,0.3474651858187616,1.3296170213051082,-1.569150029963247,-0.7351767350893977
astronomers,0.8099879666844839,0.9282443460512444,1.3919509932711542,-0.6348744912536443,-0.5816491343913838,0.9627061286656753,1.4619655253389499,-1.2015311635069217,-0.30208109205498196,0.1969298630110974,0.7540879595673913,0.024441785825168132,-0.9028338186197759,1.3044649022685757,0.7642419064617324,0.23213090602670106,1.4747492033150977,-0.2566614571465188,-0.9840559087784235,1.4067829552808913,0.5607161304524185,-0.06025935255489191,1.1171267511626897,1.0273096494576268,-1.2938075671511964,1.785693510255432,0.009538385322839696,-1.0636560597950144,-1.5010535386982948,0.5926215593034482,-0.5534997510756275,1.1760288896984195,-0.860803766282895,-1.367535906482872,-0.589293097188309,0.10067107857055996,0.10660426795612102,1.421220907398671,-0.11377286286201384,-0.7374542903128234,1.3283057779123175,-0.5135049986442116,-1.4786877764998956,-1.133941712450433,-0.7030167673253226,-0.3706745606609392,0.9707582594715386,-0.019210220352625516,0.08687168494678163,-1.9123415836219764
and,0.0770888376020165,-0.027369150955621716,-0.3843327904986762,0.3476129973286954,-0.06930457913961005,0.6061606824236018,-0.4223894139746686,0.1653599784845279,-0.8841435409072386,0.13602535700714555,-0.05362966694126685,0.2935541640061607,-0.6386648997985952,-0.02147115435340286,0.8281167787089209,0.2897797598337406,-0.6027941244496319,-0.28400696950253784,0.11931725955992573,0.0293043220513048,-0.6108847931558898,0.4031392320301802,0.2748099152056517,0.30471915019771983,0.0013352637945313207,0.231310432893893,0.3860306900813767,-0.0569695428306906,-0.2669831428249091,-0.3998494043409188,-0.20976416762169953,-0.39462650846912006,-0.23479092556469358,-0.45400325289156923,-0.40689457269115215,0.6941860624644048,-0.2804843423171347,0.02690749421894007,0.5508055482987853,0.3692864834160867,-0.024174622615992358,-0.31279048858132896,0.34043919772335607,-0.01435680049880529,0.21968358081650938,-0.14581400464808558,0.1459094824129081,0.016305034504148278,0.5121426628685632,-0.11389889976041605
planets,-0.23362636272148826,1.2499025024074388,0.4836488302994674,0.013972965772036015,-0.9152047236822347,0.949209639829634,1.2895717908406805,0.39895190322443724,-0.06793136498564603,-0.3445659848733923,1.169225984477293,-0.46921623661996625,-1.9141252695477153,-0.0921226717300186,0.08270216995035483,-0.17465984442676197,0.29785965303361905,0.8581028263527114,0.5092077614579177,-1.2755169762854262,-1.9236247298874396,0.33863174523688844,-0.2843230093480362,-0.050759803296664005,1.250925064775225,1.5217568484493795,-0.8228240353059367,-0.497720727054804,0.11311812351650931,-1.3814152402030717,-0.061672303350997416,0.3884384277778512,0.13605376038046899,-1.6670170402039977,0.23324917899772868,-1.0682529710978306,0.9631777828762627,1.001883626598182,0.20417871677315835,-0.02552002811117213,2.2938040862526226,-0.29541987506269557,0.12048274872618928,0.015806489515353715,-1.2640543481906068,-0.6982376561365359,-1.3962989825593803,0.258955448059205,-0.31112210975681903,1.230881186864704
as,-0.09230843268998515,-0.2342650617158934,-0.23952400010788166,-0.5039408879463435,-0.7092048968922383,0.16404031329050212,0.3395747385017109,1.6404712070395655,0.4100639123108228,0.254295762902895,0.35337638218776535,-0.20345371122246847,0.983632914134507,0.6278966118376972,1.747154408272849,-0.06660817747810155,0.8751345422838673,1.2756798843568908,0.18548601287856414,-0.5470897125915002,-1.1835534656437021,-0.40476677316574744,-0.9844669838817566,0.6374212476984558,0.5020132823372363,0.7992414450556964,-0.48306065427033335,-1.647913097756471,-0.435120997432961,-0.9632454110201619,-1.3028810536767685,0.22244851084387648,0.11895663280155146,0.19932505725776958,0.03628104493773805,-0.5483195235536408,-0.6501784276115959,0.07502324302594869,0.590543257310034,-0.9146810786300663,-0.9405674679481412,-0.7150177906057359,-0.4619806441538757,-0.19717656201018688,-1.6444058431809154,0.9541618221753491,0.12211393976958126,0.44967349160585124,-0.6131834351235741,-1.3255332632068286
they,0.34040239667417277,-0.99197635783771,1.7217002494552929,-1.0460425689821382,-0.7399240736057848,1.177169331792777,0.9204402626098341,0.21131569053040405,0.3562409123302113,0.39376277194708215,-0.6247726737561987,-0.731522957392727,-2.4219229927724104,1.703420561963168,0.9811618541886891,0.7232183886637166,-1.043335999843025,0.2825631822961838,-1.7013732158872463,-0.9091296520795489,-2.035847783841744,0.6244409013594164,0.9114366313020392,0.9740167064687225,-0.2970406216083466,0.08670805577909725,-0.2434487035620561,-1.8729178195219078,-1.0834892713132696,1.0926802501022117,-2.3735927521650058,-0.013158279401421788,-0.4861238230939157,-1.147367530031004,-0.3375544807591674,-0.4521794376360552,1.2628923801809964,-0.5897148702540628,1.1666693897752591,-1.5077801991745374,0.8496386043981747,0.13083397303455616,-0.21699784612791342,-2.163944012533717,0.01245241713740495,-0.9827975519496577,0.16963632367500175,0.7739621520462915,0.010989126403399706,0.36618904305352634
across,0.7613617644079449,1.0937270800530583,-0.08356726392466454,1.50897648335661,-1.317766217539985,0.9367513751287107,0.3209134655159144,-0.3052690773499562,0.3858846620610061,0.34366774874867995,-0.6652157719310022,-0.3015258589041446,-0.3303766415556525,1.759820468161435,0.8215374546517289,-0.6243660135631044,-0.33631230938012313,-0.2911571856574056,-0.4746498348698136,1.3849122710642012,-1.4179886566744209,0.02396821860754546,-0.9147461104232824,-0.0926880236246218,-0.5516037664597637,1.5630967596605971,0.4390348000463809,0.23621331800786632,0.2033620341692151,-0.11697977893773542,0.23501923678936268,-0.9590245480328745,-0.3278469197867664,-1.4206759540925267,-1.1890865962885095,-0.3850624583867606,0.33125391175649616,-0.22720022818509578,0.3499447029845146,0.3593941290283827,0.7151012271197843,-0.16536904780551753,1.1869726161473182,-0.4105982518299382,0.0731238601021641,-1.4059973471326799,-1.2610692212306172,0.744711887367457,-0.5112594915776181,-0.3882285719577683
night,0.5532218857905739,1.2610981991786077,0.5379647752413829,0.05634995230451203,-0.5644767404478299,1.6141976760145254,0.7765362146109942,0.09846291647183766,0.5610412153961136,0.8453497171208846,-0.3320625454779629,-0.5921805553289606,-1.3535221249679836,0.4433860864194428,0.8966325567246002,0.32614040129992306,-0.08521606292253683,0.9367579609792821,-0.03315895744130166,-0.050988863770298334,-1.0661683044661878,-0.06181595906816701,-0.26996434195000063,1.2579214637099378,-1.0379393660930414,1.5795839526697733,-0.34629520459812346,-2.068323756453147,-1.5178315497191703,0.44759886661308723,-1.164995530083439,0.9265918669915221,-0.4265729827767719,-1.6136682846388708,-0.4384633789102938,-0.39281181146091665,-0.48140878608106186,-0.04958342912278617,0.39861507522864575,-0.4138125449291647,1.1829732099803254,-0.18142692625108772,-1.310507608468092,-1.1458684219752826,-0.32396851951003264,-0.7300577500289805,0.6605068301081268,0.43327006360564835,0.2611917866371179,0.3885502620694419
sky,0.9765073446556111,1.1884638143185662,0.129576825816557,0.010713740266606422,-0.7334662935476299,1.7223170690371483,0.40150961449806394,0.2189184313135004,0.2794995109649502,0.3710051973014816,-0.12796171003601886,-0.22806490619813796,-1.8753969334094662,0.1398573733338609,1.238451086962899,0.7461124307668778,-0.04100600045354252,0.8737853707386545,0.0886453648054786,-0.3633084972487332,-0.8731456751834412,0.15415322461010436,-0.14577513951547047,1.1840456460014912,-1.0791234240053567,1.6835920306699141,-0.3739917623535337,-2.5200411927038524,-1.733338219771295,0.5237191037423403,-1.5020665213707698,0.6309069786591077,-0.5193884174390637,-1.7459237878301659,-0.22817340070939524,-0.17721663300460525,-0.627351971922765,-0.028878063990930746,0.2892777753915334,-0.4922460451022293,1.0017598278621875,-0.47018594018033505,-1.111277735462752,-1.3861534990079825,-0.1128171111977182,-0.7072871148447131,0.4214172991721349,0.26355182574611996,0.34398212910025244,0.004502540771963882
these,0.2279921746517862,-0.7508023220809562,-1.0139104001097745,-1.5532806855802954,0.6032811509579339,0.18364434288858253,-0.36554537607323867,0.9678019743357068,0.11678338521251318,1.4525552701901103,0.21000824021317574,0.4592663645159329,-0.19676079854359788,1.068637551970705,0.5239833082542994,-0.9216633477927824,-0.9930355189056818,2.3759342651280133,-0.016518172211274246,0.5147821520782296,-0.6762911661956843,0.8059126971931975,0.5251929644067825,0.7661091944987538,-0.32652581967852473,-0.3914313946867933,-1.2787536252513643,-1.2184201165087867,0.5033702390257198,0.5890093668613939,1.0188726300388622,0.7237294143009925,-0.39450757584634044,-0.9557143902392025,-0.10738901479824857,0.490066628282041,-0.6887006928312934,0.47652172844854146,0.6397889052989745,-0.758932315512742,0.5166169016384207,-0.6469036101508272,0.520642885744227,-0.02974323277998524,-0.743839499730822,-0.9383657706243295,-1.537260085913148,0.49590962156986107,0.3981888308641703,1.0118152384945491
were,-0.9948835366976415,-0.2193359812219647,-0.013583871775036845,0.7125078757933561,0.5391673393475162,0.2570903789240782,0.6352431709320223,1.2047266147722746,-1.005846209809367,0.1502953081870027,1.4232411874033217,-1.5835724790623356,-1.5240878669679976,-1.0254861847994794,0.936195254202871,-0.9392793969715886,-0.8448852185318761,-0.2222439599986616,-0.2328436949337675,0.2534492129272638,0.4802209863477664,0.4670906782211199,-1.7867557532429856,2.095355828951337,-0.12698925158684352,1.4555422940117095,0.6370741042902591,-0.8986251778343366,0.41638168839098133,-0.6460782291438014,-0.5809182018119605,2.1316097994046146,-0.5264912793255204,-1.149857107068555,-1.4153186697602476,1.4111067952994099,0.8692555662736866,1.3108657482959498,-0.26155617130508263,-0.6913478456186757,1.2749417362057636,-1.2645458267786418,0.4046605214198926,-0.3988054751710152,-0.08312782518833574,-0.5647637551233343,-1.453441501521447,1.6977566725214832,0.25942698359090777,-0.535407137815519
crucial,0.009907536493771543,-0.1612441598007198,-0.15751337211639346,0.7650630244491236,-0.17203595799436658,0.04505281461913459,-0.4316197317756133,0.541619482701504,0.18934181447253998,-0.9660437571534531,1.7485287387769646,0.4911807065485566,0.606330873822505,0.3756476504069473,1.4311223832975888,0.8061485366293907,0.17211150456056495,-0.02616191895363919,1.4675282199767623,1.3943494568716068,0.013185901724881459,-0.20706457255509247,0.8581045735051704,1.3201798947369665,1.0153437702236183,-0.3157624045482667,-0.8932903167947523,-1.321701462284522,-2.3739545521583794,-1.2382171157419388,0.5997186992741964,0.5251110114318249,0.8905019206188867,-0.962284775511939,0.22415570055713255,0.13305532359675493,-0.07720700071185334,0.34732626842304143,2.0800108646029374,1.8423267352010155,0.7286954742331011,-0.3599475707058949,1.0005627195419657,-0.15692532090724193,-0.01933333374599374,0.8672576873666706,-0.5741279457361154,2.711314429862381,-0.9345643039293148,-1.0928613771509896
for,-0.4649357359633795,1.9899717947628577,0.7599623761550836,0.5315138974583611,0.23050054203228743,1.221275692085776,-0.5168510675414881,-0.5564144161005533,-0.03653540409158005,0.27846764456983397,0.25618876157476866,0.8699402406516215,-0.694844064423984,0.860914790581029,-0.16945918612201394,1.0038323533374434,0.2655146461351557,0.02775455875492877,-0.05858520059514089,0.3241805172840378,0.16841302411974485,-0.2078016151762099,0.5834851078132867,-0.037980237424897055,-0.29253072073680514,-0.5072759378827277,-0.6431350184453767,-0.8998498972806168,-0.45740423293413357,-1.41784356080533,-0.3255370123250911,0.9365455361336887,-0.14289541233920292,-0.5042522817964696,0.6361452858625253,-0.4674173241026494,-0.11562760957302927,-1.1062987166912082,1.072327072587258,-0.39387515255947597,-1.4273497790531773,-0.5794542107974986,-0.002155195840371566,-0.1350341461131762,-0.35114972562678665,-0.567493053355948,-0.6381419852730775,2.184045659729245,0.21447357777870543,-0.9705263749973708
understanding,-0.8935629514619841,0.6064761966441536,0.5313954596199015,0.29571064964515376,0.5235721721686021,1.0329041733591153,-0.4114756152653116,0.5690662214359334,0.6516468781340441,0.8589872195908617,1.2813637142731875,0.6960441739535522,-2.2329613325252025,-0.27001300853254484,0.7394426033781567,-0.5792502207542624,-2.333385043883391,1.4414837337845863,-0.21692459711437054,-0.3059416118771109,-0.000595048955049278,-0.7341154015084206,-0.19534616993733492,1.6700691038066167,0.11459234219929487,-0.029016052270324225,-0.39578057117657156,0.5469609269208234,-0.6828022400822417,-0.033411123935087716,-1.07422053277923,1.8714622836666854,-0.28666980329028563,-1.2977884167190206,-0.5058181223550665,1.6747998884684958,-0.5662219641437184,0.34234296026065897,0.6159431738916187,0.10457394875581909,0.027976283399593165,0.09824630784253359,1.7301571565359994,0.6937190349747283,-0.7754666029040059,-0.058850517577782216,-0.5836860341686475,1.6806300985319618,-0.19268483469998135,-0.3535028123036761
changing,-1.1421031365511904,0.603668353640655,-0.04931574581896395,0.47181479281353605,-0.28632614493731123,0.04425445435752269,-0.7017677416499972,0.09754956355840654,0.572546490342028,0.2735837225408712,0.3381184851565277,1.1434883977453765,-1.6107090386223066,0.12048103122974703,0.7280799289569185,-0.4783429441824103,-1.1997164236951579,0.5339687991170688,1.2968921821451127,-0.007952226855412687,-0.010351050341534324,0.8217053961785686,-0.559221846306298,1.694789028167294,-0.23520446487579724,0.19332105361961138,-0.38477532377838203,-1.4178637977605484,0.11965909250426397,-0.5257132381895925,-0.237490155309762,1.8997019483789965,-0.31476375291011915,-0.5630208542523661,-0.6464473734668312,1.177040658223222,-0.8147262693300537,1.5271656634693558,1.6152660258526088,0.4179246926269926,0.18636967729131632,-0.6187377165483757,1.0483310356368816,0.013416583001958053,-0.48236044598902694,0.5604211377005852,0.13703090148102992,1.6869126595500028,-0.6074282077735009,0.7732703054021987
it,0.022304311501591498,-0.2392439030292905,-0.48855275176081286,1.150361436188262,-2.4511574058539427,0.12624683944747805,2.3860829580967926,-0.5780299572159718,-0.14650646494993072,0.43152640428330263,-1.2497390431653717,-0.7319012598675011,0.8775362207895254,0.9284313978241513,-1.140840281285163,-0.33580593078686105,0.08103274349502887,-0.837802831980645,1.6369174424861033,0.28866881221254087,-1.204260731821349,0.3394956424475005,0.6010028722840134,2.2523135516567447,-0.8251798791391796,1.133470162271057,0.055224964632823614,0.08858095750059435,1.1768141310456428,-0.7487297026592018,-0.009275060130300132,1.6138790666212985,-0.0014746680177846355,-1.2795995236268773,-0.1599430572284814,-0.460648695597714,-0.6966975561898732,-1.1634528471674817,-0.02766764732082351,-1.243526907631412,-0.4731886407652199,-1.624539751027822,0.9052228258850146,-0.2682187304937725,-0.5352325760433898,-2.1700055156532647,-0.6021966697273345,0.5266179008015334,0.5702245133014614,0.966593509724134
was,0.07829788231724874,-0.6492429560115821,0.297048770374516,1.2059137613453885,-1.0672101926175372,0.218552598474988,1.5951357085991116,0.8179667284414037,-1.0975374683932062,0.6537754280218314,0.4159498682837065,-0.3284887307856537,0.255853928975401,2.3340549910667145,-0.038049449205747266,0.087740106140444,-0.562983802478484,0.6823202719183915,0.050897076378488594,-0.1459807560407253,0.4307674472558334,-0.10734550016172842,0.2782459378671639,0.8774261481328333,-0.18981317510134021,-1.5485793915202195,0.16045141607041533,-1.2414054243443247,-1.345877127488809,0.015068788869389196,-0.5818553595450868,0.6900808505900404,2.44790465172841,-2.968686459818763,-0.1937931745555977,0.4148238978069625,0.1558457742992532,0.8582891562795306,0.5414682663416149,-0.4063585918799567,0.11091123360766042,0.37485918409158464,-0.8929608342030044,-1.1035710562327803,-0.5742034012753593,1.1707764218331675,-0.6500596171633464,-0.052475052546991356,-1.0586398657305582,0.25695734260714775
not,0.9166211947758122,0.0037108666651840204,0.9830326254955895,-0.7743994794500496,-1.9995577251814183,-0.2682827307345193,0.556118758298261,0.7370132274355117,-1.3409940820468464,1.1416489894608852,0.7196609887650428,-0.29948166400668386,0.7941585636255063,2.0814762258331734,2.21714857616329,-0.4662999565987304,1.0186406428594095,-1.0263311384669822,-0.9443139377679972,-1.1366563824416571,1.0079608275667218,-1.885806064325826,1.1382361436917148,0.3967876536686209,1.899000116549021,-1.2346012425126007,-0.28320795809941546,-0.7119328424110475,-0.6520886123922968,-0.7643191127524409,-2.169972812650936,1.0512710148165028,0.35693778655392766,-1.3919449447622958,0.6344531293769112,-0.09231392560915441,-1.134460375686444,1.431258722167669,-0.5341489739184798,-0.5990513582381193,0.12316797510217664,0.5961565201957473,-0.4845947110684787,-0.6353011536781422,-0.45843737977161675,-0.863634759000469,0.07330407593866888,0.0553105688084114,0.4988071723459614,0.3727579469631217
developed,0.6519953215758431,-0.4770084070436807,0.41206910032071903,1.1391654826728717,-0.3195263489373473,1.4307616934488647,0.5931499504528684,0.732183072274289,-1.1051602251501922,1.7125969301061206,0.5080644816035231,-0.8723653649020034,0.3074061206298811,2.1944817051504066,0.18546435433304798,-0.6467335986950346,-0.14205903531778286,0.25396866962980874,-0.15453552320852507,0.3030215538856136,0.6197490399687953,-0.7312019582564252,0.3538320483732957,1.743221043682207,0.7062009462000669,-0.26618256549721403,-0.2972075609043802,-0.7087380038470436,-1.2330197217706165,1.2055881917702478,-2.280643551425847,0.4882248179131844,1.0399076827630804,-1.8233793882246858,-1.2530377283529412,-0.13233086254396464,-0.5762431019592644,0.24616333642706525,-0.5775920698014032,-0.2297946403221462,0.6765549470672046,0.06286982514627892,-0.533546352843921,0.6019338830298724,0.22420346450286052,-0.6782608268568553,0.6407286280046162,-1.6433369961336117,0.2628581973309994,-1.8332673578870249
that,1.2840927554124637,0.057445991654354905,0.7873252373102849,-0.43746722076131167,-0.2887711562640705,-0.6747601161632796,-0.7330805963887493,-0.12950609077171674,-0.29775149369510623,0.26223093898353295,-0.5796537547125195,-1.520110239643417,0.19451595795989057,0.6950022989475269,0.8053504531939012,0.8826918337462141,-0.6348153020258435,-0.8220637971781507,0.5048539548659225,-0.1286410374919811,-0.009588393847024566,0.5946612257607373,-0.11118601772723993,0.6495462680270977,0.20678908344091382,-0.20900208170640255,-0.965827972514318,-0.21807558782150116,0.30878731532637416,0.06513533873037262,-0.6678605927538306,1.4429385190054322,0.001738491505302247,-0.573581228430555,0.30038369392863123,-0.7133251735807731,0.12225049255331663,-0.03729418396764293,0.868640609790066,-0.22249572185635547,-0.10943433220450535,-0.7146625420067575,-0.03561397633548327,0.1752559691227607,0.17544223133033146,-0.36314467330551586,0.15927756776378668,0.03056707110669005,0.6564288035343014,0.84658002707439
humanity,1.6203608794694382,-0.956759203859974,-1.141423372011585,-1.266478407929608,-1.962201579065604,1.252799851411513,-0.5235604955864547,-0.8234819975270736,-0.774526821623524,-0.15049753051801149,1.340450815514649,-1.5099313859451564,-0.6064279053332862,-0.007126259102239387,0.29256450624390856,-0.16874220822218755,-0.49915157866737264,0.588809295119934,0.7768235530466863,-0.3328368144293107,0.504832850345821,-0.4848005917231908,-0.1906433301629676,0.10610022906299696,0.9662760801200307,0.5210338452896764,-1.0876982769311618,-1.3376581574352984,-0.7316987183649215,0.14115858140231954,-2.4425470481930933,1.8627647329656356,0.2230169175335971,-0.6758014220065002,-0.5646907489676013,-0.6125690572086803,-1.2263738259720784,-0.392359092902384,-0.1022136995970817,-0.01174165303513189,1.0219602073690242,0.43577412119908365,1.2474734417183113,1.258790081491259,0.09181531143256728,-1.8925783864176982,0.18450669804322511,-0.03082741977707583,-0.30024873522325696,-1.2115970527671867
could,0.04031170083716652,-0.9481217062244598,0.1129960738562518,0.8782630341721178,-1.901137050997374,1.3022872788175168,-0.7389767328979502,-0.7922814317713963,0.1603900886763369,-0.6317018281308283,0.4104882921293761,-0.3783788705595825,1.2283935145719522,-1.1103948066105909,0.8062593483997802,-0.7441591186832108,1.2111925118296865,-0.0505103257396051,0.10775487315494603,0.8766032994127162,-0.762522554347857,0.3208114528257935,0.4861053493564548,0.6722363889404104,-0.11057787054381349,-0.5671068662609587,-0.7942007870159588,-0.8794444480282547,0.2248180680238576,-0.9492596418464682,-0.942887210866874,1.8981925522782923,1.1213137995337086,-1.8570598333862398,1.1455324340913182,-0.37591334098700696,-0.2570716620261584,1.0862754509905652,0.5954058874063705,-0.37625721204390633,-0.29382805970812886,0.22089553183376653,0.3213028880651111,-1.1033411054171784,-0.6009673029341772,-2.880176176682532,0.4984218596882732,-0.2232995193125233,0.07845609819875571,-1.5828422985987853
rings,0.36397810555941407,-0.7556486859575573,0.5016355287571388,-0.4061183315898203,-0.8607547206088401,0.8434815977383506,-0.14017568073259826,0.6297667729485832,-0.9149955715180838,0.20025850479135168,1.2125901351913762,0.20594983411890908,0.4979455623565374,0.12599594381421783,0.8697989952834793,-0.8164999626170568,0.19272062462509873,-0.28269170122075427,0.226997117281183,0.018399717001355072,-0.9751352402025485,-1.4258794767987428,0.03201112539245297,1.0421592839759393,0.24624813847220398,-0.21957908025147943,-0.90995728706652,-0.903621729759906,-0.06492896601300731,-0.0346163731359865,-2.138421545603572,1.231508466126522,0.9812171681059918,-1.824980149053434,-0.04367382640738052,-0.5260913092801786,0.03830507730443685,-0.13304204004604223,-0.1695258859047395,0.02784695501162159,0.17918645991071655,0.8282761317621365,0.47193981498873366,-0.022047357440346322,-1.5528169079458374,-2.0004709866795114,-0.8047304250132266,-0.9144041830831293,0.26625103500866454,-0.274104985311721
saturn,-0.2777510512819385,-1.2313521706301367,0.3757337217561855,-0.8246519316851096,-1.251813906208177,0.8365285752678344,-0.3792107790833271,0.4490931787177957,-0.9634682910193546,0.14007432588008129,1.8043284229226666,0.9930287916805047,0.520627280918212,0.020926653618807828,0.9186537849101354,-0.626512680313757,0.42018917397831046,0.22694128064028057,-0.24144248263215023,0.7363810341214,-1.4341355240767664,-1.2296457449067948,0.22450773792972403,0.6794995042687654,-0.2946782792157581,-0.4339436781439929,-0.6451435852024907,-0.9211201625363009,-0.04842886410688566,0.6812539443394215,-2.162114151488658,1.4475293744941367,1.4701530017391307,-1.8707685912280931,0.15833942309981466,-0.9091773604215991,0.5069593308883374,-0.4134263102037802,0.062265526448041585,-0.1335070754288904,1.1605694114225682,0.8124686662941485,0.967248329702548,-0.36529016196618175,-1.120583969598187,-1.031501154407803,-0.8969105696618063,-0.5164481094663114,0.567210685584912,-0.28510090952615935
moons,0.2704831482413305,-0.9282697348703837,0.9644749449518046,-0.8658331412376286,-1.5804784835282666,0.23915078508429535,-0.7861503769158361,0.2164432772205052,-1.0376707089777788,0.9116338461376108,1.1019850606190644,-0.23410722858153504,0.2321796356561852,0.6357226479750638,-0.13883774587238507,-0.5717894160452467,0.8253791023523329,0.6629079005452257,-0.2361141201278834,0.5149912365502844,-2.5752848572251796,0.28004484997321605,1.0425624497742805,1.0681543349184826,0.4470301466576106,0.8350421491909585,-1.3787200979985246,-0.36737981345544707,0.7426079732684554,0.5065077892710917,-1.33175487240364,1.4885069589017907,0.09646818930214919,-1.9305625060958858,0.02679529928624096,-1.0983156848732019,0.275995382469837,-0.5395207903996778,-0.12827958467137435,1.604797749866071,1.8561056003906746,0.7688878315695356,1.009451492985361,-0.8416463615425788,-0.28206212437060774,-0.9353211951107349,-1.3802958062410091,0.3710021641892629,0.6410458522831807,0.5386401655097468
dense,-2.2577937473562173,-1.3054434902441654,-0.02795608791665968,1.0326219894373372,-2.5167832803653076,0.40685424758213967,0.21106704075283142,0.23923506539521597,-0.8120924466981196,0.5874034010968773,0.3656889365548775,0.1006710267897303,0.39980513616166075,1.3068413508229186,-1.0935056747063094,0.2388203918625181,0.01952835247298619,1.0957604412763615,0.7312870437104241,0.6480544981552171,-1.4657664679022586,0.7764860241275416,0.060823438211072806,0.26133597985915535,-1.3873435675191532,0.31285459380740865,-0.6181912558869318,-0.6340642686947803,0.45993400568583465,-0.2834433589344418,-0.447582225699526,1.263358663839741,0.09206528990888087,-0.7944508249318034,0.7285267580341811,-0.666406757554815,-0.224516833174238,-0.10144525367856491,1.278574292776174,-0.7689320762563414,0.6191802425272461,0.6469189718199835,0.08642375534622322,-1.542304618109022,0.7103986854348989,0.03139273535627408,-0.8082606959653039,-0.1760188427027901,1.325810364955749,-0.4526746439372468
stars,-1.4242571172823244,0.7452956659884752,0.5093431566383014,0.5074338249527863,-2.1650058130832277,0.9503535759574085,-0.48245290397177326,0.878224602743021,-0.7690324839958703,-0.6178276233601306,0.21003164783226738,0.3782249635679357,-0.7826935457742478,1.5478268498716812,0.12640069731873332,-1.0556013332887342,0.38197414329309093,0.37252693877120935,-0.920054680651003,-0.10253685190782934,0.005833785562127074,-0.2688673220941342,-0.0653353370082826,0.03368778808552278,-0.46835837578261375,0.1299900244648143,0.00012445082001074875,-0.46367300197184536,0.5945247039794413,-0.31071539054453345,-0.7027506453998066,0.34002823220007355,-0.3442989695123585,-0.23381637719229795,0.614019452368891,-1.242492085023658,0.12271084022777715,-1.0156510173392925,1.4969737723770031,-1.1553507837426165,1.8638963040159473,-0.8194852335808767,1.091835335198687,-0.12959902122824254,-0.28223002068626907,-0.5349346902730715,-1.1138673754076776,1.1450123177912281,0.9922168721684106,1.53297147622865
milky,-0.8416286494641996,0.1197029824110212,0.39909013266420307,0.050423216252418156,-2.070728544086871,-0.5051923981916027,-0.31658231863844327,-0.08520497567196618,-0.09410010926966238,-0.23395914309655894,1.0507429216629793,0.6705244358802271,-0.659878403207789,1.034413367827548,0.30366173183656736,0.354919628332554,-0.7750639457606584,-0.4061468460238557,-1.1014734737920049,0.5452856894175294,-1.4482838377960667,-0.7629179866935937,-0.117189770696254,-0.3196693088570224,-1.2914524898886433,-0.46628586873526756,-0.8147722372792335,-1.906284385088581,1.7147457803094086,0.22039684309050903,-0.29688180642521017,1.326992356162372,-0.23432722839608128,-0.4794275116687349,-0.1277298628094299,-0.7763583802512534,-0.05120366009099032,0.5166728145954347,0.963679453415721,-0.856005757916179,0.4908416530357217,-0.4721463632070614,0.718988260433,-0.5495342339035993,-0.2564879134898094,0.2631508830997405,-0.27475870984821604,1.044403737656659,1.2208035668822879,-0.46579840560229
way,-0.6537827982542308,-0.06998088067516493,0.2397600301291895,0.13402416641234124,-2.3299186401144367,-0.31399445991061026,-0.5732298441140047,0.30937422649133833,-0.07591240560511225,-0.5066138485219847,1.0379438472847264,0.9021994061574738,-1.0037483642373208,1.10505527166744,0.48860252244033664,0.849250724842213,-0.8891087205570385,-0.1262148444071726,-0.9616852260147954,0.5651850386156602,-1.604031712835796,-0.31918951654679434,0.06871793166959325,-0.37189294353881813,-1.206531560162517,-0.0559454558424454,-0.5673605536075159,-1.8280240993908032,1.668920523287461,-0.15188810946498635,-0.37238036289754733,1.1579690824622624,-0.14685619479782933,-0.6522194701562497,0.13264003938038693,-0.2796798592974734,-0.24052308836369973,0.791243911685172,0.6506185936352599,-0.4941300637704398,0.08324417265052049,-0.4279916386897603,1.000932969743466,-0.7178885849859518,0.3285362560672384,-0.2068797592046779,-0.550834714638033,0.9606068591662666,1.6746546550995896,-1.0156329636637187
galaxy,-0.3730907297474189,0.19754099603411762,-0.7666008719514237,0.6389824713989707,-1.6508104118867264,0.7159802258126323,-0.9851312439726246,-0.03538290785220432,-0.33453896590641746,-0.19765486358047676,0.6002947637091641,-0.9564754047269851,-0.11724324082175443,2.707281630862876,0.8122153152130573,-1.463335901443408,-0.15055690293583335,0.24259749737439745,-0.8196979311651617,0.8038231513613529,-1.178814104961636,0.7149069604599865,0.36867800027043174,-0.47972166954939033,-0.4361412146727066,-0.058309732924868254,-0.5613708358948767,-0.6413216679956006,2.0726019909650057,-0.22606970973961552,0.09682822266014193,0.8354464691378978,0.12395376971530354,-1.4435330704248903,1.0914320884824011,-0.875313898364946,-0.29624333919411727,0.7935502646290359,-0.10714839518782694,-0.09857126173559508,0.7013736464487728,-0.05854661159940011,1.2172014490780898,-0.45183450916987145,-0.12566169330332527,0.14733552246468373,0.9399473445371593,0.8065684909364557,1.0917175178691652,0.6187548424956488
at,0.33262485433152633,-1.1542952391514332,1.0048082273747567,0.6568289948564044,-2.0969140323980393,0.6022481158285695,0.41974468547383126,0.8048116792691766,1.0185749548212315,0.5535716051697068,1.1528167379204515,0.5477039465225004,-0.8172914314973,1.2947114616717283,-0.7597231090828523,0.11876971676215542,-0.8411994642264471,-0.8208996327751139,-0.9650527509030917,-0.6052185332518935,0.15573122124925634,-0.2844523349730689,-0.5160929413238741,-0.8203127379287409,0.782860515132833,0.1300275979554725,0.1833639720627813,-1.7744486353026085,0.026884918506088554,0.04640318214169861,-0.7850724596787296,0.39415603056802384,-1.0041370428832381,-1.3955360685819578,1.559043676379773,0.9002164601393351,-1.0927012753100322,-0.3005005253267638,-0.3245340524663243,1.202369959822341,0.09583448660165889,-1.2686491043253298,-0.15391764816080047,1.5972107431130087,-1.7553927094113468,0.043344208212177576,0.5238804174061085,1.0214949028019296,0.4198578033827439,-0.12991111164397035
heart,0.24744863111725995,-0.6535997049534922,0.37720348176044133,1.6388057677768604,-0.4474239472791518,1.2260751844998063,0.744175333618516,0.6124829036048011,0.03690626021892476,0.629155642398518,1.1093158391818183,0.6478598225765576,0.74601799035771,-0.18725716391866148,-1.1284131037462202,0.56833772772495,1.1280844017800105,-1.1102564527770078,-0.7180643763404507,1.296159313862668,-0.6453206224016645,-0.4626595083191272,-0.15689223994827076,2.034524394213753,-0.06572367257634147,0.06329145874789689,-0.9803616541869823,-1.6410834691086882,0.2962509455502904,-0.6098199065035353,-1.1778273559598573,0.4151957174525581,0.6295819221756892,-0.9928628389324885,0.2656498948224403,-0.26192271042659954,1.3215271678376082,1.407990394249786,0.5254018665924783,-0.7598937860932338,0.4726923287635427,-0.08954568491880699,0.9516946436520007,0.24360661124629135,-1.4222284245756665,-0.33978845343062847,0.9154629783274546,0.819626942665501,0.7926023591365969,-0.4117810088678619
every,1.8130961121424947,-0.3966377515234728,0.10535459705219058,1.2437113575698318,-0.33704837513465863,-0.9502024544891501,0.8565729794773852,1.0102252822348843,0.5557512515281207,0.12397044176408425,-0.9628551662010283,1.188316167526323,-0.16510890300262882,1.5591638989346581,-0.13272715536218055,-0.13465415117030255,0.34123506962924477,0.5243594230058104,-0.19265287992352553,0.4514000435706009,-0.5831591684672719,-0.614164875028674,-0.654591995117525,-0.1364506064604625,-0.06206392091088296,1.1055347021634814,1.446081250941523,-1.339709517803558,1.8241246246287663,-0.4872621071493199,-0.49904289714885797,1.7146552505437844,0.3175892377628253,-1.5466711809356792,0.41626075758650144,-0.5185134581959001,0.239036638448489,1.0818114915417718,0.5274471856606904,-0.15922413422642187,-0.37598468719942824,-1.901740933857026,-0.1777383823101038,0.4442182098098804,-1.4557864260598221,-0.7746573811471551,0.3237702741042249,0.7755856541546368,1.2343620717473454,-0.7410308692144507
active,1.0375856082064547,0.18290071730778681,0.9601747368169355,1.081758884214087,-1.0049172576750285,0.34097739929801435,0.22777955081383175,0.43734154350745613,0.10647573646592114,0.0817605729089859,-0.12604929827932898,1.2514544306024924,0.9539313268773429,0.8944309948219612,-1.3964558256931323,-0.09121772642467055,0.8223062088042807,0.02888841908987315,-0.7677036929641952,-0.47190894060134037,-0.8804207508566965,-1.1706738471717322,-0.4474532034944533,0.42260796363392455,0.7442180507775882,-0.651320392484289,0.1190641632023492,-1.0107779279642695,-0.0032576031418200106,-0.6060214784057664,-0.5379948037403675,1.3597369094520597,0.00915056080574769,-0.6006246839269473,0.4991385044089039,-0.5040247236913434,-0.12890575096866125,1.3927237969947242,0.43679726410715447,-0.19118008770679887,0.8360685267896237,-0.5364181615103393,0.4246586936645238,0.4084224472555285,-0.7550089821556659,-0.7533653319915461,0.7886048439420682,2.0879674768689886,1.3178089502707162,-0.25895896143221236
star,1.7909902989508348,-1.4622921289319202,0.07518831255428464,1.227653205774347,-2.1130803972600574,1.338870348122561,0.615901657150543,0.4755452515905402,-0.903896552052463,0.49645615052270925,-0.25127710714038926,0.6531744242665208,-0.9145336686579288,1.0340555652087497,-1.1578337396520926,0.7017985239274117,1.4879056575894767,0.9977597540038374,-0.5754360102879482,-2.256414497462204,0.07846003793460697,0.7357150812159702,-0.09941774761869579,0.5138270488636935,0.8024759981627906,0.8291815935115955,-1.0208252804386697,-0.8808679182594509,0.7543401057546595,0.5463576410945377,-1.1461266617097436,0.1365627545814793,0.94198127614468,0.2735909927244593,1.0759985759139885,-0.8830960685157403,0.0392038005503043,0.44430685480320353,0.9345266296252077,-0.6452724114500681,0.19185830220911806,-1.8690248432268142,0.7229851556149118,0.24063928651435948,-0.35258214255484327,0.9197599484941176,-0.47529638601833907,-0.3732001985178193,0.007253714996198066,-0.13254003038761678
is,0.14223212231241036,0.7097980733733424,0.5417548395349389,0.06384691622654269,-1.2653216579871998,-1.7477039128545127,-0.13296445265670515,0.42267341121757757,-0.4896205539880187,0.6655925548296596,-0.14755015412366687,0.2771461430700425,-0.14614741282484184,0.5265904801913387,-0.16271366780417587,-1.0195817447874487,0.41517336070632455,0.46028294277083737,0.3241399686524458,-0.7922637134718707,-0.9569569341344888,-0.05365290556250601,0.2947929441788389,1.7962578404983338,-0.06356540602736134,0.21832323182114036,-1.0508800764040995,-0.9596219777404564,0.43266100651835987,0.530917424234169,-0.9833320077639289,-0.7922830656663483,0.4024375621227265,0.22668151081753918,0.3626663569801543,-0.39471012483278334,-1.093402672667709,0.4820685632789493,1.1956736796657326,-0.5749847083819069,0.44563189153351024,0.31163230015909243,0.8167146642666068,0.18237460336648587,-0.2002393050323155,0.6033106756425245,0.52863603871359,-0.0001976733958469199,0.2885873720935588,-0.5100545340269816
a,-0.4034926041525846,-0.5908776645698784,-0.0336966606072931,-0.01786672061374374,-0.09857697480063073,0.2685454002154153,-0.09515314249601683,0.3777918188198299,-0.6781359383793619,0.3648348672067807,-0.5242668055721224,-0.2740151113095645,-0.6895647273998735,0.6240565420603293,-0.1602159274544889,-0.18395582157914242,0.10840960466150043,-0.41045548709789625,0.40814638656282914,-0.15929107351046318,0.09611185201203984,-0.3951328684131047,0.6852986252786164,0.05281777842160028,0.020135612186483732,-0.02202995018074943,0.036025238558260224,-1.1241027453572459,0.49341021165207505,0.2559535928148867,-0.11929192762784012,0.14309195667363278,-0.49476767764305013,-0.3930879926226715,-0.46489222585567375,0.2433133679991899,-0.7218313967742126,-0.11971546860973861,0.4225058329389137,0.27898969973636595,-0.08443146962220076,-0.5823895390193375,0.11965650362737558,-0.4218396124611646,-0.21514531291430813,0.5312745259345418,-0.20138577892708803,0.03109622243283621,-0.259249857431716,0.021274502419209786
nuclear,1.024347008642141,-0.7208364707468663,0.218160572145899,1.6194822929164887,-1.1072500433427785,1.5638614898812921,0.38024303113354957,0.8814883211573281,-0.6946551166816225,1.2386759688266562,0.19230852551999558,0.5634002612756145,0.5897325327386072,0.2738170038317955,-2.0069893012233604,-0.24817850193574598,0.21004615126476062,0.3791708744250188,0.5872280310513407,-0.8244256605262209,-0.9593446969288978,-0.037335920423951695,0.7006240028414021,0.1618814096322346,0.3905686174039976,1.1762827206144,0.06829234179284559,-1.1076534889277363,0.2958605225140496,-0.014610278005763101,-0.5432702870140043,1.507426451823569,0.25909391247967506,0.1432047180394551,0.5176374807327251,-0.8267408695356977,-0.9123434308397267,1.3010743906182791,0.5078640432036325,-0.509240637166802,-0.21145976190027865,-1.300948711728803,0.2968829291361721,-0.13656941388235438,-0.7473569132529788,0.6446552316433445,0.1038499540174979,-0.12147552351593575,0.5672345215784319,-0.39574649776761683
fusion,2.529287390645069,0.18793411772980165,-0.0913701506783466,1.6333915206258864,-0.7082256626031053,1.73949596192218,0.787563489741913,-0.45112043917422046,-0.6991379718310741,0.904508484934476,0.40681026320092106,0.14164407055175054,-0.8436750783069501,0.28310100173906166,-1.7569014995279453,-0.5749359442243079,1.1342089783537161,-0.19653673730599983,-0.42442675657152595,-1.4156662337609731,-1.1198539819938027,-0.8144104137323018,-0.2510214586476679,0.02991119938894264,0.21879559475845586,0.7608666284359645,0.5078540708500768,-1.3655743899214496,0.7447432872933938,-0.7212918825183517,-1.0952140479811772,0.47612989446756,-0.23268464862920465,-0.33403601907889313,0.6797481468911621,-0.23187797261939147,0.2501129055077246,1.3432755790728257,-0.7534350516647279,-1.2024214871579908,-0.07726339593600269,-2.014426432197648,1.255160058291182,0.2817002503008279,-0.7913601644685498,0.4141168072391766,0.70754193329778,0.39155870157571515,0.6233063401397624,-1.1075603819723654
in,-0.06823903265923674,-0.0015477779830096782,0.38686194472677604,0.2537397863949409,-0.04978753821024606,0.14529884975833607,0.4915568806541719,-0.3939451805046818,-0.614238822668509,0.06374704125039247,0.7343102266075547,0.49129694961979387,-0.043390399572926994,0.060934481659917134,0.5260953561892966,-0.5988768952041931,-1.525238146811633,-0.6442621784155285,-0.0012052981881814282,-0.3012513001310993,1.0359345143270484,-0.3232488154365419,0.015611108992922762,0.4813585486762323,0.7246722811679008,1.288517345627518,-0.516334136755162,-0.7192509042827804,0.7480363323282728,0.10157537281051734,0.5892769220802936,-0.01927243994232711,-0.7454313896234996,-0.33959144376962563,0.5771399790267462,-0.8479670340954651,-0.40754047127389614,0.31228035401465104,0.3781802451817217,0.792213390254549,-0.3338336209328079,-0.884040729042752,-0.11880115270849596,-0.5973273767210566,-0.5916625971941228,-0.2450685666491709,-0.7751305430179535,0.4712713197901002,0.6718092306603627,-0.5724112452692748
extreme,0.04569515049438612,-0.36884168814596213,-0.4361429919196547,1.6084304394311413,-0.45678187403774695,0.6578965984759828,-0.5983249667400371,1.0282462140868875,-0.5327629518517533,0.37512920517387455,-0.27666739090275444,0.8903637039421283,1.5765860198664834,-0.7256167012871877,-0.6579440072762067,0.44086836968324083,-0.890740707364899,-1.2187501194199366,-0.6173493703655665,0.1283783634564465,0.8249247739789264,-0.3976047724859805,1.4574966545354244,-0.7972239786555655,-1.6225318085342957,-0.020957426572117195,-1.705240997780556,-1.3403076099281954,-0.0017554587146288289,-0.9445923230358969,-1.0798160796189582,1.6643379318356815,0.5025030121247004,-0.7308289113367951,0.3975203750481175,-0.6875323050768547,-0.360441295594559,0.5939993074258786,0.8551323579594527,-1.0875156929458363,1.0530353569474116,0.49788466502971934,1.8823999258802804,-1.279961229407356,-0.09547222493077029,-2.2218043635522817,1.6548133934279257,0.6559524994854303,-0.1412462737587944,-0.3220734586499699
pressure,0.5271313101333079,-0.05589898345866732,1.094784580115763,1.4238640248219403,-0.32593517114276943,1.7277584758094682,-0.5384911291353122,0.020554251566268004,-1.7213077654574966,1.1946417999355514,0.40068087157762733,0.5215100259691794,0.7503456246636044,0.951988644651346,-1.102061788396911,-1.7243004172403036,-0.1957497663000256,0.39055474412203794,-0.2722982809508646,0.4233968226357547,-0.9052691360469007,-0.31904138583865105,-0.18270675723506621,0.27400476397839174,-1.1537590912499855,0.16185067185606813,-2.1573779196314664,-0.9499603460909236,-0.054637099444560244,-0.22687972001646553,0.5443616955564454,1.2956113530464788,0.35126593398327655,0.8347675325586051,-1.729461109363397,0.8344844654391361,-0.8393635653082937,0.8240320528079188,0.5784800825623464,-0.23508654143831575,1.1720233633360952,-0.5918300634787963,0.6316099577950922,0.48319719831788743,0.2901659684832236,0.4341432132603442,1.2163422029606705,0.2852678511252315,0.80182960408515,-0.816629600379128
temperature,-0.4378941975812979,-0.5216512901726212,-0.41596099129853914,1.1998485660248905,-0.9500350189605596,1.3725278372531575,-0.9033313561384044,-1.387287283354412,0.956528767662273,0.8207657078695126,0.22205766649392786,0.6255019762457752,0.7805626603682149,0.46132917750425506,0.0198989361161318,-1.0315975968850832,-0.865202518592402,-1.2444825421650918,-0.20440127327714422,-0.47796555386007344,-1.4192872186480001,2.029433986695522,-0.7326910049805191,1.2604136816999898,-0.49358724940027743,-1.01489278406104,-1.5172364022587312,-0.23144980486974967,0.16023261170717415,0.43450932731075487,-0.029272905803866003,0.6236450859216767,1.0108341087920538,0.5401187346768006,-0.6678890056256216,1.1155772085669133,-1.4356823405721701,0.5604887991259416,1.5289908517012845,-1.6868198045241367,1.7464894651704124,-1.0224803576599648,1.5879641870275538,-1.072081825969172,-1.0829916590599322,0.4809799374952991,0.1753328397122366,-0.33472567480609067,0.8773767549974386,-0.4218262382589368
stellar,-0.9356675462238391,-2.601691355257332,1.1001733578757313,1.298057396258342,-0.5839083145232682,0.7451314268569936,1.820307303450354,0.1965722042425307,0.36282811324518455,0.8640221177888437,1.0483433081604048,0.2404088826703768,-0.43343083741428406,0.46757200784879194,-1.2018947054254556,-0.4258111317527117,-1.3156369126992238,0.7332708216265553,-0.20979168689673586,-1.041238769115282,-1.285568203393487,-1.094530820853163,-1.5995625878442048,0.014806291612251244,-0.6112160604611944,0.2373593216272683,-0.7139121355213663,-0.5608587171471268,-0.0468821080246996,-0.4160684951400358,-0.9597591885199137,0.8805775357247876,0.659692592199741,0.36762516779366844,0.4257884368981348,-0.6694322543603021,0.3006024569800224,2.095678700665691,0.8857307734946763,-1.0513216819880222,0.5364727958967378,-0.820691622940762,0.6813856382777052,-0.16206769770151871,-0.7799653126529953,-0.6169846036146257,-0.4210460467982699,2.040880911442643,1.689736441341796,0.3068268674131182
core,-0.319103590661342,-0.378610917915784,-0.2817323239940635,1.1922703518908473,-0.9843857680752027,-0.3106885731537378,0.2681072713257237,0.29420212377913435,0.7658646618328026,1.7205143037907293,1.522137072753598,1.8904757192053403,0.15485795310396924,0.044606532645476656,-0.2290954386879798,-0.5411747492652395,-0.597917371357187,-1.528847976529849,-0.06914704984395639,-1.5894938082391972,-0.7714364235880263,0.5207355160335381,0.5990387622779677,1.1375056262319059,-0.9740894362323531,0.5083473933564356,-1.7407912509995154,-0.4908588655397122,0.126420198276007,-0.7224930295489379,0.1394965407569271,0.9128615675794298,-0.19733425160286985,-0.31599203286233063,1.43565206622224,0.15037935455432871,0.47652324634426546,1.7035487615593954,1.7682584410938924,-0.3010096687445907,0.5248400595367876,0.2084981004973375,0.6068577161394563,1.7001471011506357,0.5552457267034178,1.2836927239506604,-0.8910886862485565,0.578506279025578,-0.7862138479536781,-0.012901606371970067
hydrogen,0.22990170507724692,-1.6335203271997367,0.8515656795017251,0.4440386267234257,-0.9005127018983511,0.5304378253418041,0.4710213624766966,-1.4024372662530387,0.9181184603292628,1.1734330180685915,1.6187064560203446,1.5057072119863086,-1.0161064365766077,1.094747272498868,-1.2987332625080097,-1.2532527531519735,1.1937649138910211,-0.6961263608892458,-0.37157338982569976,-1.5106171970680509,-1.7649418798593575,-1.1992636225499245,0.20044237613052523,0.6496508855337723,-0.4417892114367002,0.05163909227311682,-0.7836767560535662,1.4067783206196216,0.28704380589173456,-0.6931512371996669,-0.6104759821113752,2.0848266921032375,0.4962102242224386,-0.692500948736195,0.2751391789632248,0.08483769163397023,-0.32300818409880677,0.5984664704271159,0.6719891926075283,-0.6021202919643536,-0.07887819069277328,-0.8315248695702475,-0.27613634679177484,0.669714511566252,0.1782887317192048,0.8851624718630123,0.29371605389150185,1.8275953204016118,0.4228179418217497,0.19515624455838695
together,0.21968920234902362,-0.540287877815872,2.246490017893426,0.9876582603868918,-0.6577447082155095,0.6228243938861745,1.6400489812566195,-0.8968210384763992,-0.1956029755410149,0.06689657662670993,0.14008547919908404,-0.16676321758264814,-0.7357097577939521,-0.3498120006979396,-0.4465402706965317,0.39132389232839576,-0.5813258445855679,-0.47462532335263613,-0.7363755030325685,-1.0430687827546743,-0.4880298266794478,-0.6556580720589118,-0.622309995842048,0.11804133887441715,0.17344510592502482,-1.2539999832535065,-0.006381756360317161,-0.6811082423875736,-0.4535941429330857,0.16219418965382199,-0.8938826291847689,0.3916572675322399,-0.13180045853024908,-1.550143385752687,-0.42150949875670063,0.7545225136070938,1.0314822891413507,0.7507507254729047,1.8090564964523557,-3.104289351250897,0.32870279579135836,-1.4600641737166429,1.3683821557106024,0.9167879269315011,0.18054078060168596,0.06501460301059647,0.15591261932660294,1.904380003604529,0.2299173534346536,0.014751829092019756
to,0.04673477389333603,-0.08499750130406007,0.10920171401635122,0.4307957248426217,-0.39163383730555057,-0.6896644139803356,-0.48178261417718415,0.0992613798569822,-0.15885344240754598,0.8542423265695759,-0.37629731154592655,0.8280632817053629,-0.2593887322758568,0.16973667569620354,0.3532488927623635,0.6277288928327696,-0.3622934259423763,-0.556393738843797,0.3207922105953098,-0.21480021906067942,0.013683903177597387,-0.08766807619899879,0.2047563118861107,-0.25517238588977686,0.030401988597378707,0.15123819054310048,0.2711668532495653,0.14921473214959813,-0.7817856556457217,0.1598257150293779,0.20185477882676955,0.3573475324803435,-0.5688906075588899,-0.5074060010735766,-0.21551934585437296,-0.34833985189506,0.35723865466563415,0.26959197566839294,-0.03914537877438616,0.34035953863378826,0.6228278645867285,-0.7049944780059503,-0.13340153943025437,-0.8869997213324833,-0.07783346835026209,0.5002231071656476,0.04165898484607329,-0.15997674040279458,-0.373972431304504,-0.3867171531211287
form,0.6002454768950302,0.5324847404465892,0.7807154428166614,1.222049692236379,0.007410706696251299,1.8485635935370193,0.09001493202548574,-1.238736082556993,0.4466498356605171,0.7598061906736456,-0.1265787311085747,1.8765892755321685,-1.3226747138132142,-1.1354663761606032,1.1823069266621293,-0.36627608701523245,-0.49231052101214995,-0.5516337974701733,0.5884167330699446,-1.3824586516199786,-0.6569878050211935,1.2990819820782114,0.3158513641079224,-2.283186866555284,1.4913887243007076,0.6273456345066807,0.8112861675590988,-1.0131249925273516,-0.5197133832967169,0.2168886519605116,-2.1230541096389315,0.7704286099655708,0.9973362267394732,-2.056899356801075,0.5777639442724276,-0.16168853598023286,-0.09738260785486627,0.8061964523216464,0.8035712895885972,-1.6094700199279264,1.6296950473217904,-0.20047631650203812,1.7140434610152495,-0.47672684276256433,0.3342364781108376,0.060082539576078196,0.12283876484561267,-0.05704714954765056,1.2600087512971387,0.8682558962566068
helium,0.5834517179524313,-1.392685837196295,-0.31247670749936896,0.7621241227773231,0.6274860940596402,0.2362667347364209,-0.41223472723510923,-1.2846358172396468,0.41189407268844797,1.3544859215523244,0.6961451643345863,1.3922661384608155,-1.4931635729244708,-0.12417406075236424,-0.5151032485775466,-1.792286809920259,0.5266743629864864,-0.744267859557275,0.2574191193426941,-1.0970748546184494,-2.235634345705564,-0.667742156506904,-0.13362147776653924,-0.033998905245149445,0.36793913169707165,-1.2014124446349923,-0.5541733779870677,0.11893577719139156,0.1460421890159934,-0.12328202184540842,-0.18544162500589867,1.3460575106636337,0.003760604257825661,-0.9467567115303737,-0.45177663654465805,0.058698944234765654,-0.35253808888748006,1.1507163483180587,1.4851341736987997,-1.0560017518679494,1.921261338770663,-1.1776405818279163,0.4226081724060272,1.086292324151689,0.2652703890536833,-0.802611233117775,0.5011842130004254,0.5504804406791676,0.7343116801589427,-0.2566804006245444
this,1.700626180604664,-0.05498736173447103,0.37765284823289635,1.0381341523145906,0.46949417423920914,1.0522141146873134,1.0705892045565855,0.941134681844843,-0.3173823355342166,0.7552624274352291,0.06111958907239242,-0.8442881062174742,-0.45460889331147347,2.1791694815519596,0.1778016222839625,-0.34009279186313673,0.4622550792984014,0.22360853573163184,-2.889932039972152,-1.5600174829766358,-0.8131479396273562,-0.8658679694090744,-0.06831031842692253,0.5658616236934124,0.68376498488039,-0.36323932971947825,-1.724376978952992,0.14449537970654977,-0.06616646707903742,-1.3235266444402323,-1.358332397008221,0.9394525761837805,-0.6855189763727315,0.8650268520800499,-1.3845665866940773,-1.4842195864850016,-0.1837411836330105,1.3784434664361216,-0.36982682232355235,-0.4347025043897525,0.6503339337539886,-2.4188752337313177,0.25931624898024463,-0.07898357747645848,-0.9530968966368876,0.023241591209089668,0.20619485899271897,0.6419649291163764,0.011933375147530383,0.23803205020203078
process,2.6266259727573833,0.25844641501036264,-0.03477763509893248,1.7688886459911808,0.25790191754005704,1.3969275417319988,0.24799082701752007,-0.9807094665935955,0.6253652843121915,1.8957418489765756,1.202582335744632,-0.6021606920856485,-0.7583197274251706,-0.1457155571244573,-1.7712590987260581,-0.40604070521276003,0.6481084649707508,0.160863193043393,0.1418694253907963,-0.990090549427751,-1.4519108275660635,-0.7834202370802351,-0.8053062791632573,0.33170156014490765,-1.0253545717370007,-0.5148071771538767,-0.2896401197538403,-0.8440451462772475,0.8929784325196093,-0.26730885102489205,-0.13880178215836278,0.6020670713574292,-0.4967693978095821,-0.5341665324424733,-0.9173840298110344,-0.01882289992547484,0.32027275572701464,0.8924013715956471,-0.03269223996674763,-0.9856120153778605,0.18396291394165382,-1.9154897778857882,2.0599516006063117,-0.6219936712263946,-0.9306349725104458,0.37522567598209616,1.4107250511296991,1.195215988751094,-1.0705736390065306,-0.443321471111454
releases,2.8046097936952346,0.9951259118508669,-0.7010307558664924,1.3754041644216841,0.31735043115621253,0.627646568435983,-0.26445949978549016,-0.19184578045884568,-0.417052244811491,1.0435955024837194,0.3786596823046475,0.288084641124514,-0.39764106157798695,0.4526373844781341,-0.16061130124603196,-0.8255789200451568,0.22341297552131228,-0.10261411181177629,-0.9337195431496939,-1.0624369686442423,-0.9886027776611449,-0.6195203692609367,0.4809107189206461,-0.4939420000687406,0.9853238892212737,0.6618967833633613,-0.13863963094810938,-1.1970809061617882,-0.3619516394530635,-0.1257138222512064,-1.7102613429496278,0.5132080826928418,-0.3931884159216785,-0.5240814626905281,0.115563139440366,0.18811242082537544,0.3871032956899121,0.3426857078898674,-0.02179962440029233,0.46545192281865777,0.5629064824244452,-1.714023788018771,1.7081922862259256,0.21254878553675413,-0.34913743846462775,0.6320674374943481,0.4297760266917779,1.2215350404847227,-0.7621895394690819,-0.10936001452130256
massive,1.1836075385830083,0.6349435658340993,-0.5864972702708942,0.26348642794885974,0.0898660370129427,-0.1476615950804639,0.1256918744209452,1.0715566408736,-0.15362546510914263,-0.3985749288839464,-0.51812613705995,0.6595758241643872,0.34933764774183984,-0.49060467567587,0.8818670530473157,-1.2070026344879565,1.5732287399063916,-0.96128380320072,0.6640609113288044,-1.5255961942974576,-0.17221855050546883,0.46766935291799744,-0.0643032126784099,-0.874010321946084,-0.5838827548413565,-0.05461362217879715,-0.7391052105641001,0.005375043161063102,0.6297391548824052,-0.3165365330761984,-0.2517263015228747,1.3208952304129304,-0.22344761010651526,-1.4484688087177517,0.535365449069663,-0.40104349983081594,-0.665241442972505,0.2779648104281456,0.4574992743308443,-0.6711569739339802,0.5486757981063178,-0.8901422924356668,0.13291260762645568,-0.26155170989170023,0.6962029630291601,-0.5202496056735947,-0.6469809435376946,0.7412332653075882,0.07528806050192752,-0.3934308643603916
amounts,2.136932725070858,1.589243430452114,0.8273081820334818,0.8929862133681291,1.44269873079652,-0.33423675137546377,-0.030437275341772832,0.23801368276819593,-1.1325104169270936,1.5103886796501356,-0.12035772662743012,-0.041499986576471554,-0.004290646856201923,1.4909359480810265,-0.08807841191098557,-0.3887064263816087,1.3258811701934248,-0.008545626403759157,-0.24974342170679417,-0.8334575741954978,-0.3395244727788748,-1.8606975677648532,1.4336063132212133,-0.22585402906534405,1.0947824483680946,-0.2737300207592365,-1.3106885469872924,-0.124154177118772,-0.0009101205388634645,0.8536100124174707,-1.3303214895973174,0.3728187229366948,-1.8702164240785202,-2.01807199648174,0.04851586333842833,0.8853619564629102,-0.11586926286052218,0.10117926620077976,0.40198583542472355,-0.4558628438888444,-0.24051921065149517,-0.45432568577486054,1.556325295550308,0.3142683459211212,-0.535018345968516,1.229706029952906,-1.3891464493732693,1.3507349537237914,0.04059377740929401,-0.6206336252362102
energy,1.3185819380342134,0.4272618141996164,-0.2577309178919383,0.6736187307593678,0.4139097352275131,-0.2465955676543124,1.0843439352182842,-0.4167493239197393,1.8013431110099611,0.5132464588346649,-0.058636479434577074,0.528267395222444,0.4306750779289835,0.8436906529958754,0.5476251245929861,-0.6477449561788349,-1.1711715384537047,0.5209343017506972,-0.2610650568591957,-0.7417419308624608,0.10763304022296671,0.6542148029643442,0.20620429228749548,-1.002675983041885,1.8662494446827753,0.18690805002137084,-1.900139890111401,-1.850241122482978,-0.9564249636234513,-0.22805842452694886,-0.03096536142704989,1.3081131214906365,2.0825767054953075,-0.29696978848231315,0.38061524288439985,0.5075506869055,-1.0749542949102167,0.09620512278473305,0.7561121889681042,-0.19460022767458163,1.1283440730407586,-1.2122757337688128,1.0724415287561557,0.13208666465805377,-1.3759883835004836,0.020313427584865696,2.607568480288377,-0.15023876057859345,-0.20065182639178228,-0.47091460278860364
photons,-0.5358337291439654,1.0311136038176891,0.9448032679795774,1.4287217600005346,-0.5134239348804526,0.2808451230951642,-0.6183336367387144,-0.7162058229649954,-1.184910582054316,2.068022929747057,0.6605506406592444,0.41977257111585337,-1.0712227830754817,-0.5891673153516801,0.22157020429135985,0.5680554202668896,-0.6847192169973346,0.7918133156352819,-0.5931000848844299,0.04510447438975387,-0.8315413980434918,0.0032354587592335064,0.0771237483602659,-1.1786770917670375,-0.8264977154153654,0.21346282835785907,-0.925371817758063,-1.243631995854493,0.06812863355215242,0.2914264960450366,-0.30449509056501134,1.82163944208776,-0.6623881110775227,-0.955729052738916,0.7385766994878405,-1.4627818599271099,-0.022942863760288066,1.2170712184053776,0.8102760722984577,-1.021787135635133,0.4102489734337633,-0.749924385361048,0.515583852123971,0.7331315436552487,0.17829633294301306,-0.2752242894330704,-1.959816366127339,0.7358210764827902,0.22225992527913943,1.2507093668205715
escape,-0.7111319384320285,-0.8205043006746555,0.196724146751398,0.27406756896499584,-1.1654282501051343,1.8261810951386346,0.9808055004391967,-0.7031819160169434,-1.8678220409125486,0.6502538384396427,0.9040564872927895,0.705111067577594,0.3145424569271327,2.0665494642325526,0.7991630848570375,-0.6035605153826874,-1.2734257324206115,0.4964010084513651,-1.3359091202105937,0.08059070499826573,-1.10378166796874,0.7736902073041689,-1.6276091769315217,0.936552211454267,-0.5727927133241649,0.07999333928960624,-0.7109041569308473,-1.1854096537452525,0.3823272380431389,0.09689631798214497,0.39059645051851993,1.0950671126462914,0.10967739093282598,0.10998364244256988,0.8880729083217312,-1.1507944642837158,0.19824076767471419,1.7083384036382696,0.6379945605876506,-1.8675967475752644,0.6832401340852841,-0.5703483561188757,0.4876472317867762,1.3936243113653106,1.2901458135613817,-0.7719017957615084,-0.16237514055812335,0.36366250415199,-0.3917071212674153,-2.143259887385166
around,-1.318186095203928,0.9243802823458243,-0.07563854338831004,0.7292625537867955,-1.1930568109228947,2.474874139158475,-0.2035570034385177,-0.7954880947401168,-0.12683136016691157,1.4123668128182545,1.9257920937707171,1.4355444255429166,0.9855108701099204,0.9535738661127735,0.7111641306277505,0.38329638043959313,-0.16463668228272796,-1.2260825446111991,0.21453590674874498,-0.5315685680686049,-2.1883180729265423,0.7295328295435515,-0.1346125748140214,-0.03023916645255961,0.1627912560873595,1.9904364087698987,-0.25032258146566383,-0.3526760103646241,0.005361865840212838,-1.1027041469888015,0.690272661392673,1.36125465400359,-0.13614337220248665,-0.7284729934474216,0.3950239013414265,-1.2214560583917125,0.1503369704803052,0.6978492715702224,1.5644242001636772,-0.8704032337881622,1.0429027027222464,-1.0568582229586918,0.3225904345952547,-0.19433455687219742,1.5408570778568638,0.7308214761356505,-1.5543478250510103,-0.05603227218057768,-0.8633173985217828,0.4044873148916269
thousands,-0.958856160603672,0.5780075414895677,-0.6489053194377049,0.40356875259548636,0.5331645988037725,2.444994511384505,-0.5511839733921635,-0.47935758960708413,-1.8938765433677227,1.351497426494542,1.0726019764996912,1.543570965536685,0.3301740775914995,-0.47620915777338507,0.3250663447216096,0.2959472741730819,-0.3929046740312723,0.7207707442254533,0.2074263177444494,0.4420638755935234,-1.0334321464741714,-0.9970945167189613,-0.09794089136142672,-0.6598934458407424,-0.5554359948819663,0.3927812810619723,-0.4100289260879126,-1.6851145768483464,-0.3201716798275286,0.9486441754169814,0.40576962748823386,0.26146241951570526,-0.6433486078072682,-1.022675152440716,0.15952180255555307,-1.0070646721437684,0.8242713307028436,-1.1540613092836038,1.0871527409088586,-1.1011691509510109,-0.27315690070361404,-0.4866263836817171,0.564326893211212,-0.06127899628951004,-1.6736235197770066,0.06056935620401111,-1.2502896368165564,-0.032603307223248,0.11256122102080414,-0.008203596577314119
years,-0.5181949559883307,0.24825293958814354,-1.100778050461209,0.44141196491212237,-0.8862391641541901,1.2629674425298585,-0.36170307479102565,-0.4164772107600511,0.5830646391246319,2.46426157057934,1.7034645738535799,0.8808917782477534,-1.8357314229617783,0.7727203733101553,0.9099221429054423,1.5761877378943423,0.703158232783847,0.9235850731492473,1.0171998459245817,-0.47063500050824486,-1.9071463741240782,-0.7265740068919462,-0.11646285848170944,0.2725816942047356,0.1468631028234896,0.11490210382543437,0.15867343895109828,0.009924262996573256,0.7304123531811878,-0.6165766419897487,-0.8043959530427195,1.3104869099272096,-0.6349347228925835,-0.7841347126823363,1.7229897549168747,-0.6071177570882782,-0.8643474056873722,-1.1910232694804022,-0.39533734239448426,-0.3116093414698316,0.6994252238936706,-1.85024083603373,1.2259784222553844,0.4171686460859579,1.127759521418869,0.23024010375517223,-1.5508590645536422,0.2431357736352321,-0.7054076954542038,0.06728860454134605
finally,0.7137541597487896,1.103281793923214,0.29290948323580446,2.5632085460314555,-1.846248107528873,1.287862926652727,0.20593780812379736,-0.5321383798935049,0.310404923270168,1.6836310073072858,0.6704120638978741,1.2142105529581264,-0.006755937830048118,0.5742324208390461,0.16299085696643542,-0.9755792259248257,0.18890052569225504,0.6408357456422938,1.8011423985687907,-1.0214240759019093,-0.2776821881205317,-0.543382006612574,-0.6925406864488183,1.1140857997837357,-1.1637327433103686,0.7964234589181474,-0.5593428354716645,1.0138235401676754,-0.7142614498087755,-0.7691993592943934,-0.6290775167586443,0.00020453310465690309,-1.0504906727707015,0.41698456412143614,0.3966817892006009,0.11251870723719835,-1.3163743879082583,-0.7553864040193597,0.4013132401638304,-1.0113282522194496,0.621895458500856,-1.3688428390085456,0.7408524651406864,1.0907693849842068,-0.3235898941197272,0.06730188685619445,-0.6562522311825767,1.1298546484220786,-1.3511659048074218,-0.14275615735661315
out,-0.25113598966863565,0.2842327864947714,-0.7129810021093024,1.2823963628893829,-1.8521269754737382,1.747846131729345,-0.10721739782299629,-0.18044248691973275,0.10150051004091712,1.1331337902153003,1.5133273617331082,0.7706199541542526,0.24711938675641,1.45467128739541,-0.2960426212831936,0.6260281117447327,0.15450973737098822,1.1730778458770248,-0.009390532377341413,-0.5315957119892687,-0.8314201245584637,-0.7463259063418684,-1.0264443838113668,0.38726451718591265,-0.19959396557627143,0.2512760073264149,-0.43346571482482105,0.22402094243399312,0.05197031672797684,0.5871499242607308,0.1774247624235784,1.318275268330794,0.03424861130666191,-0.7220275267952494,1.0804290463751782,-1.9763109870030344,-0.319436114704722,-0.22238922339785316,0.19728843791812722,-0.6086440476659591,-0.3148021681666701,-1.6267287113170226,2.014901977835168,0.48985231958903896,0.8768723249858266,-0.15651554782787558,-0.022210997466554097,0.5891857022368924,-0.9403077610705423,-0.45351038726509435
into,-0.004737233414826242,-0.9401189492951756,0.9064300979691756,0.4847894207316432,-0.7609587803467202,0.9809061731053713,1.4394956887166086,-0.3032357752236149,0.5602285346459925,1.0708338175938543,0.18576825932625687,-0.17733522372407307,0.06818776579588555,0.8700635102970408,1.9637740036021802,0.049879024074226196,-0.3062679869296674,-0.2943739980658481,-0.23487736595837364,-0.8110729293102481,-0.19677911846919183,-0.8752992713246566,-0.9880225209816661,0.45095174195796006,-0.19310226604215208,0.6112001657735512,-1.6940796834072651,0.9503517057660683,0.5615137233156015,0.17445007569970924,0.5150356200540643,0.16747940573777723,-0.7538143163243807,-0.7891670905790141,1.0167279164402705,0.07878036859211304,-0.6748462831306823,-0.9635894437652315,0.1003158701938991,-0.17910068906890458,0.3445058181524793,0.018745926826040822,0.8701275459055271,-1.1089932124031934,0.8829491348681276,0.04611599726853971,-0.05935422183594658,0.3694181374633067,0.17797632921407974,-1.638973954011595
vacuum,0.057299528672284626,0.11596683292644981,-1.5623233170906419,-0.6943869432649026,0.8473158978683077,1.151366828279682,-0.22500909067868394,0.7836801466336958,0.7647668508297706,0.9042518369141437,1.0068553764061547,0.38219825178785033,-0.42293049641800806,1.6221971746051975,0.17821127135738268,0.016211531250430494,0.8097772612927844,0.811570051095712,-1.8690915791160836,0.6809853658880964,0.5510058790744874,0.34354668388578324,1.5590184401506744,0.6605359518649129,1.0311093151067594,0.2832430551737582,-1.329688484402475,-0.4909744176975053,0.6997677223857077,-0.09317799119906753,-0.8686768466642195,1.4055539798626533,-1.3073942737605948,-1.7546021464307455,0.6672232442992205,-0.7843949027951174,-1.0561157381708823,-0.3216265003552689,0.58250187561232,-1.6686724898317518,0.8344044613874376,-0.785859194638465,0.6664559408326278,-0.46596405603144625,-0.4542469333255899,0.27243086795532284,-0.8215986679375541,1.605383150027294,-1.6592419649542578,1.0079607124494427
space,-1.2294060441378523,0.04583720498410668,-0.9772882465686015,-0.3331028289991077,0.443438307490178,1.6025705328087905,-0.7471938727822176,-0.13831083409971864,0.4058715999899841,0.6142541552093146,1.4523779343529473,0.5013269932588591,0.4894850722014231,1.0653810268535675,1.4293503389417976,0.15518874084386006,-0.096765644416389,-0.25437679422175835,-0.8041682403095208,0.2988127307252475,0.5132829982119829,0.5308844479679237,0.06709784427762532,-0.9565324518555247,1.412812238482759,0.48555422099633655,-1.0745151915853588,-0.2785300841017876,0.46267673929774905,0.16936483832592594,-1.207578275670213,1.319819803139738,-0.14608535719897045,-0.3879526812717443,0.6854686693857742,0.2463195481299858,-0.629742964334754,-0.3163951032752009,1.0109607669880605,-1.1408711794235613,0.2648625203156614,-0.24494233529134618,1.892292467951006,-0.9270966940814354,0.11946389660529683,0.24138640014851978,0.5089917059210805,0.9874059672459505,-0.7130507482926464,1.3816003803528123
light,-0.8839220055187126,1.1761654493371212,-0.4627089474688874,-0.38419775616553875,-0.9666742865875818,1.3872144070834624,-0.5228328335292466,0.24586175753909914,-0.31446585406037575,-0.19487745957607955,1.1991616945007892,-1.7148143463736267,-0.7412014459229469,1.15838649407063,0.26651417603960303,0.42282813416901865,-0.1446693008455502,-0.0368999894649425,-2.5580689324179144,-2.10024375658033,-0.8853038120445346,0.4097354487228117,1.0550538888642638,0.855645783093424,-0.28411574455514427,-0.5620479022610714,-2.6002722104511538,-0.5846879289991477,0.0910742483118181,-0.15224468593591706,0.1312170914376067,1.6981076117933147,0.30542848890285695,-0.28208379160665437,0.3502093782227942,-1.0517901712934954,-0.6482676748014735,0.504651859825188,-0.46930013309031804,-0.3204514683639397,0.24161862466472614,-0.895659060738256,1.4185346223451807,-0.3611481568386786,-1.3636451562848624,-0.16209063204689167,0.7156250922920484,-0.2791810769117192,-0.32471884037987864,0.382231107838622
heat,0.38424808636027896,0.4995539373836209,0.8559206806525843,1.36280610498694,-0.0845672179266196,0.5769774051766282,0.6302757172370579,-0.41540122771521315,0.5668647689247202,-0.6068060960651784,0.6534623335908727,-1.647432316815854,0.618936865705322,0.36629370091583746,1.3964483528699405,0.45475349231891404,-0.07140179174842547,0.1710963867870451,-0.6324326282155585,-0.5462922941236931,-1.809832360668717,0.7993120815615702,0.2577493340151913,0.18917893723526139,0.9787808316159089,-0.4014416291821248,-0.7666460857311415,-0.8608987185909195,0.5625222965464489,1.1889918837888986,-1.086482319723592,1.490957991442079,-0.22656550458951455,0.24913222779324962,-0.5671915304334713,-0.2838715488932896,-1.0745041400109951,0.345655642799237,0.23602113178248954,0.04083845697543997,0.17935451530068838,-1.5704875445352728,1.8800919012209425,0.30255896362834184,-0.282671072747017,0.10288294103969021,0.8736487205220242,2.50800142342815,0.7683851947497953,-0.9605681131007403
when,-0.18088021874492968,0.6324186187855475,1.0228755452974758,1.2101888816850062,0.03427767460564642,1.0239079708135708,1.199162404061053,-0.0063451384073734095,0.674967601950769,-0.25953038873787243,-1.2274795535034433,0.32607492151197254,-0.014802105880139733,0.5639547354105862,-0.9013632201614227,-0.14380471037729495,0.26077869111661567,0.595859862341985,2.3492410449569303,-0.32568123171268015,-0.04827196706655079,-0.030412187606842847,0.4231058586895296,0.46083616458582727,0.3909359378153419,0.35765880107280423,-0.5364254386973222,-0.7168410287796299,-0.5775940347968412,-1.167207068730796,-0.47111679485648356,-0.1468254687665649,-0.26552885976832175,-1.6458893657106233,-0.08925744481531611,1.1520057300717983,-1.4698015134654,0.7222835511261838,-0.30539598312373045,-1.1554331201691512,0.34054829555191174,-2.6197574937423598,0.2763600115399028,0.38489578974648725,-1.004892690826026,-0.044179167174513825,-0.08649637816590311,0.7613961828032687,0.434923708589861,-0.31017124520904094
exhausts,1.331944554616592,-0.13026089710132852,0.6190330071112653,0.7810098765594756,-2.0089429792090936,1.691638212394994,1.236885115053882,-0.5408287463863319,-1.0326121398494468,1.708415510257862,0.4894091791752834,0.967412208847213,-0.35091566384497835,0.42210396695918573,-1.094741559631466,-1.282925444803929,0.7729325754272165,-0.3219234011238756,0.7387769963889128,-1.2980561365106218,-0.5462781748519181,0.041023607985985006,-0.12591445646405255,0.5112906167349172,-0.6653856349719356,1.2623289936597117,0.31903661227837715,-0.41514825296352886,-0.4272972756299008,0.406055468610701,-1.1026968829331338,1.601213931277982,0.37251678687077117,-0.02569644230582015,1.0113576980425723,-0.3269506625570268,-0.9840248881902832,0.9439274857786022,0.6124964391633324,-0.15501551473757083,-0.04364060832105196,-1.8720564399196329,0.14141471411382858,0.1490293925872346,-0.3876698604330522,1.2949304329528537,0.2752967004750838,0.5364248540263825,-0.5904764058651517,-0.7842270513485089
its,0.40068945322203253,0.8288074533022467,0.2615076200845812,0.33024019463250887,-0.7840888032690785,0.7788914737173691,0.44263508572154625,0.35046110390195895,-0.990221647640143,1.3176651171799845,-0.3495302964278243,-0.2575035650695284,-0.038760162994541006,0.9227627543674848,-1.43359239289099,-1.3415900352627912,0.39315553094433675,0.05378803161544437,-0.6170083641732984,-1.2866659040466746,-0.03846052212550938,0.42651355460615864,0.3166070702492805,-0.5312436815696373,0.007177264549398642,0.3462721625323465,-1.1482172512965254,0.016071224855838014,-0.37201526962359815,0.8489993629130492,-0.14868069430075462,0.39925168067568517,1.1500030573014,-0.044592921969637864,-0.29406427332090573,-0.5600492147907291,-0.38354806617920634,0.7995049979795421,0.9555726806931253,-1.721947924078553,-0.2997645190293121,-0.9500387326307587,1.131526026391592,0.8197692895152237,0.39717169199563307,-0.10418462188445163,-0.14233327715900285,1.1299436723972132,-0.8676113006249371,-1.979222745987011
fuel,1.1534514265842721,-0.3000235531330939,-0.6294251239515278,1.488562922340504,-2.1595908052121735,0.5466423144032979,1.3912070013997728,0.18626686861318473,-0.11821865838094398,2.4995124884104114,0.8456144374767305,0.27476852430990456,0.2921253261925271,0.06980202581992993,-1.6430889425969264,-1.0739017007513563,-0.4030322940945733,0.15655120975335313,0.5114643256105842,-1.295284219322367,-0.48591826793160436,-0.24837494346634187,-0.49323260525212687,-0.12910951324206127,0.28383533243428705,1.1603032331720131,-0.2772111324035685,-0.8003623892780675,-0.6403945042816466,0.0686603320835053,-1.7025928736091118,1.3005417303026274,-0.15345567558322834,0.7548368196416798,0.6594894051109244,-1.778140740323938,-1.4216238104709558,0.27050290033845703,1.2717346577580504,-1.0725937239427055,-0.802021376053789,-0.9473066595660254,0.013986632658888446,0.29115702411467775,-0.4346908669745188,0.19164346286805983,0.4809425332371605,0.6644218306383027,-0.2709945851183302,-0.9718532110868132
causing,2.081921246621894,-0.7301988198351972,-0.2067107810071317,1.4391331024962197,-2.192193495794791,1.159324386011203,-0.5339718221787206,-1.7727116288662028,-0.2336236968203941,1.5803660032780855,-0.20771323267665476,0.39262602874420865,-0.7617256612124103,0.03036368855823705,-1.6173968971435766,0.9256216494224897,0.7403624277448156,0.2858818317191492,0.7709532139609213,-1.2086556529561063,-0.707206437645603,0.12974640823364414,-1.1666184896115457,0.9496642642235623,0.07427748173039328,1.492378807790317,0.34356176302863983,-0.7208654885376854,0.37140083852930894,-1.5784089463537825,-0.9990603695228701,0.23412417487510614,0.2591457351559715,-0.6300075317972568,0.06694724080774062,0.9166753961767061,-0.014880646565343783,-0.4551656093161416,0.5900874347893441,-0.45692679844452544,-0.06766289880743823,-0.6162486700788039,0.43124990911644684,-1.778896702005163,-0.8558069774748585,0.6833021334266455,0.5284109042728735,0.8539929852556999,-1.290153437798208,-0.4777030114849457
expand,0.5318424607014656,-0.1321848560382838,0.6007332654873125,2.4129154854198345,-0.8955180529892479,0.3666011986648565,0.43537829237500686,0.1581680583803582,1.3028036028451613,1.6764669352621002,-0.47199430566990735,-0.43234328420394996,-0.8167207321002625,1.020368924645296,1.2470115795613308,-0.28524198103226506,1.555499742702586,-1.955371225208984,0.08195193837215345,-0.5768196504137943,-0.7868912063872168,-1.2093294262377328,-0.6343411138565094,-0.18981357681525698,-0.9674563053174831,0.521667458957289,-0.5100460732445613,-0.8046549390810734,0.6099067175840592,-0.9902425694858356,-1.1941298245573628,1.908390936159414,-0.20434481214047492,-0.5840574280774856,0.4454360483408641,0.06681666132303636,0.9765017499945327,0.686321684552826,1.0795537103377282,-0.014077776932188247,-0.5094521935813418,-1.6390656359276032,-1.245781527547876,-1.3198272593699394,-0.721945483693369,0.142582543714703,-0.21285196521227326,-0.1334408423280376,0.002978019222904184,0.11898402774471391
red,0.6653280343457049,-0.6944991522692043,1.0723288746970547,1.6376273153107939,-0.25169598172999563,0.9551065618838399,0.5094142874838534,0.9687073585690078,0.5172653310684858,0.27452278293090804,1.1025605181577551,0.7451758110459049,-0.6452091767552615,1.628938902869378,0.4792691254828313,0.028875288284862778,0.513877866662897,-0.6684846011533062,-1.4740053713551298,0.17826787889199713,0.46381901325848285,0.03851080429625233,0.3589248352087177,0.7199513668264378,-1.232563200622388,0.7307835622319858,-1.237079545313311,-1.383817374622227,-0.47729483925088223,-0.06621565900068214,-0.8949544055805351,0.2305790745025563,-1.1469133546829946,0.013504950636633964,1.4631269650064733,-0.867410515509787,0.00705637228086648,1.2470855666826275,0.19031667673748195,-1.0069843687542583,-0.4910064767241134,-0.3459195896674966,1.0694242025447251,-0.6506121436766545,-0.18868534315697325,0.24889181172411154,-0.4778954025897412,-0.4011659739429928,0.38773095903630245,-1.3774322014777853
giant,0.35311357488650014,-0.8777150852959691,0.48152335135261565,-0.15471395702716603,-0.6563116500263682,2.270148790773647,-0.14467177051136382,0.3059482016945734,-0.2582284407644626,-0.044213852776164075,0.5498926429796682,0.888674962620202,-1.3215152622330717,1.4774411760937938,0.7522369083579785,-0.7822174152095075,1.7607480649588447,-0.9464208370098767,0.007232359261005149,-0.035479507274958404,-1.624168434795759,-1.8184248042484763,-0.9381031848462222,0.40806182491096304,-0.7663544839450099,0.6427298793983286,-0.1207500915402759,-1.7204190706068028,0.10289583175910362,-0.339957220893726,-0.1842432025622027,1.6902643695846895,-0.7112987210271426,-0.2142649944923223,1.230104537205556,-0.9047563266874132,0.2746668580428001,0.5133187774106186,0.1814903963923707,-0.7083281790524707,0.49115632219729616,-1.3081107173539184,1.6413162813392637,-1.4951432510194211,1.0590493913207117,0.6554006005369875,0.07042875184426405,-1.1986464423229728,-0.7359161366649739,-0.253100217647826
or,-0.5385051707985142,-0.8560691750811129,-0.8268956415578261,1.4363353844456408,-1.0665195478889506,0.7217321225968496,0.1456366100175004,-0.13712374306903446,0.746065556741598,0.39266376213371235,0.29141641238981364,0.06852273174141504,-0.18024764481942487,0.45099574028378353,0.9293239974248635,-0.16030758058137812,1.4956938806413236,-1.3884018563259406,-0.006096163439800555,-1.2803106610212076,-0.8430925183079176,-0.7253400356994922,-0.045886561803190604,-0.7852175501123868,-0.17682145304071967,-0.25549691642115435,-2.2715633796939994,-1.8128207074596843,1.2007059375959999,-0.19647252912027496,0.6199152495967382,0.9091669164107213,-1.8957065394707506,-0.9671423245489905,1.5180710840453133,-1.4981159028998012,0.18645997397731612,0.5098622428506585,0.7127616689806362,-0.3841486143479026,1.6403772705987896,-1.0236776964624712,3.0974044894387474,-0.3509933184263885,1.7199440039753005,0.9600607665202712,-0.0392494504813332,0.6838215084913091,0.1678694585502767,-0.04018605312443619
collapse,-1.0577081454588204,-2.064784316801505,-0.5917377401782581,1.3882415349962893,-1.84624066418666,0.660470702481267,0.7157454838901737,0.448485846090362,1.264300120217716,0.362876363667713,1.5671643754918743,0.6720766893019624,0.9050914786333915,1.699715401002234,1.0924330608993573,0.18471921899484656,0.453484442924943,-1.0370220907276395,-0.023170694195811407,-1.0854032416720916,-1.1810328264340553,0.488537431955723,-0.18191231560741106,-0.6229601536679252,-1.1405127048414179,1.3752560931430922,0.3675777116870492,-1.2343151096178633,0.7286337325195987,1.028087326060337,-1.5944096071515605,-0.43512860685456445,-0.11262296810333078,0.24400163366343358,0.05178128046413619,0.38378896691096376,-1.0956626558135245,0.8127878993894925,0.7899518306698514,-2.1142398353360585,1.1889101594368152,-1.4066982379211204,0.8718731160812563,-0.3896845459508414,0.4581291768550417,0.9626955871892363,-0.43790946415871057,0.7722167575201119,-0.32610218991557305,0.45646099412206537
white,0.19435401920743553,-0.6561961559611343,0.2533223162158496,1.7442134888670346,-0.029720672411276818,0.8550812919303976,0.05104446547057572,-0.6176935220469494,-0.9421857682682672,-0.46743635358627117,1.4100655250868208,0.8005238670121236,-1.0437747102327168,0.49184952207632565,0.47235650756510283,1.9098417104350944,0.2317237003175236,-1.3389416985260718,0.09815633143626495,1.0347949567313974,-0.39966140070979894,-1.2395854322462818,0.5975163738477817,0.9538348243518112,-1.662998604708761,0.7853197403305301,-1.7999296199007178,-0.49448340978074684,-1.4098956329068766,0.8841307165439743,-0.8796437782506321,1.8291138546143189,-1.0768378980763056,-1.1032950736722766,1.2201529616257274,-0.12768013311464546,-0.6317751039576058,-0.1542770788072304,1.0480969265126596,-2.0871477679904884,-1.1313940443986203,-0.7908791611214301,0.5591865623116222,0.2031739727815329,0.34325031181562804,0.7775669845805615,0.002142179477322696,-0.3297421423634651,0.34321644409955615,-1.3452576890306152
planetary,0.24530716324539933,0.7893217268066662,-0.5702242679890662,-1.6116823189338105,0.01986345160310458,1.214071299205949,0.2138136183949928,-1.4098414084591542,-0.3415484464559112,0.1160463957418172,0.7715747910633413,0.08742142554557912,-2.204658616272244,0.6193863771048213,0.9723814452281548,-0.4071437348474281,-0.8133915713621697,0.6192140613422888,-0.5702993255043304,0.5473633064005183,-1.4196650445129084,-0.6552414857190602,-0.8115654163483251,-0.44967936761334515,1.707270039349153,1.8462630467639927,-0.3893136902836148,-2.316600425745265,-1.5094530897304008,-0.272856782388855,-1.0020203588405852,1.5536400286277738,1.0979539225761672,-0.9377197644348712,-1.6644259797878023,-0.3278961482319546,1.1075603651027779,0.42930585720893627,0.868395873432914,1.1837958862032802,0.7518544154492303,0.023152582460373963,1.0308496647029137,-1.2700447733794566,-0.02013649800609312,-0.5393703490271875,-1.0648344310215079,-0.5203124241444685,0.3648752715212551,-0.611230374847189
geology,0.3882210052488436,0.014389216455656502,-0.3129847662835631,-0.8524960831906463,-0.05713769988449055,-0.2461641872424843,0.15629328637029935,-0.806972149444259,-0.8371751483979178,0.740304088867278,0.6948482617524625,-0.35459284159050264,-0.9775087314481523,0.19684088750564444,1.7367833231346619,-1.0669847808610198,0.6109950087223822,0.5920420935017706,0.38596603254276235,-1.138577892903441,0.28773860850094213,-1.1914232981846529,0.18679123271396858,1.2274497257204193,1.4913675499878916,0.6780882519427527,0.30658967287384753,-2.036421147639501,-0.7158570558682644,0.4756973265913554,-0.7962706614404739,0.7846963190446901,-0.3023872489739281,-2.2299482163705355,-0.786086927473867,-0.4811959104912987,1.178704590061218,-0.1551786527170606,0.4007353633079385,-0.32234087851412857,1.2421301587095777,0.7250157990011741,0.9833080521495107,-0.2529960029737256,-0.6987235952514812,0.1200260441407565,-0.5143403549681463,-0.6673368151431093,0.7103668670144537,-0.5585690085923072
are,-0.2623035093466116,0.3248881918835715,0.3665168783973216,0.1968726397938612,-0.2420844030185761,-1.1008017663051237,-0.21085047611900792,-0.19436649277387774,-0.2379435771600222,0.9250403062860729,0.5356087180640138,-0.11924186264675408,-0.5502494922968316,-0.02724547760649549,0.4208662821250031,-0.8064837710752512,-0.5640558630507854,-0.20048711029088673,0.8004270173787663,-0.7887884386609232,-0.518990509537715,-0.1720399089239518,-0.06458435129669876,0.3977370204228913,0.4452732102090423,-0.562783464425142,0.02838684120890468,-1.245116617275866,-0.08074410824700289,-0.11713876475394848,-1.3242099299213528,0.21326239305072714,-1.1035870565858168,-1.8199198726072554,1.4658040893325304,0.5108858930573019,0.803075794730396,-0.6060994319650661,0.3191789771080575,-1.1698294191059646,0.9108917255912737,1.152276106155774,0.6411238063326481,-0.814861451577833,0.6527395572517584,0.04608312307152901,0.11013502092154656,-0.7001152339949279,0.1645231855901315,-0.9033445483288413
inner,0.3445880469095543,0.3481855980475664,2.0382571333357244,0.1566126017664083,-1.1417834264048963,0.1311780318760282,0.31710528846458647,-0.35625817139707006,-0.3743485589973879,1.3209127093824602,0.0788928609252754,1.041793695583938,-1.5110132516745391,-0.2793368423355347,1.8861116622766687,0.3773155519117977,-0.21754426878917194,-0.6625520155541289,0.6430421873001205,-1.8725280920115361,0.17877172813327563,0.8439224989482085,-0.5079429736659566,-0.3113569814093695,1.1191612316869424,1.675376578829925,-0.29615290809875583,0.2486686275964177,0.7535545334358074,-0.04375064488637109,-1.2476198888349992,1.4594199086446025,-0.5116844857802727,-1.7349239372207692,0.9469656791972908,-1.4465028444306005,-1.6135205756903415,0.0346813133626608,-0.35794400010920446,0.079373170590229,0.5154346151735019,-0.7168377069162387,-0.37923167160158394,0.2751518369072314,-0.825243408307182,0.08780979316898856,-0.11051192901539932,0.3489796205632184,-0.020156193423506837,-0.061904253883671295
our,-0.13978118030563438,0.42029625731523973,-1.293311612836745,-0.5819214754700213,0.04433608443562104,-0.042890571686868384,-0.0857375237436224,-1.0791873519063846,-1.390770019144231,1.8945385176020553,0.7933567506897973,0.22809035853339957,-0.5619844387350986,0.46980324605712137,0.9676405349014529,0.03765484285388325,1.7840307020448274,0.720344065476168,-0.49056415186601626,1.3849111988294664,0.6403573669624143,-0.21022563756873655,-0.2792669261909922,-0.10441692352252706,2.043645645774445,1.8815093152988984,-0.6179529844878282,-0.8394862808796837,-0.4944088447012861,0.655204785448649,-0.5613116795929154,0.9553860353012453,-0.8429156381879908,-1.330677186169305,-0.2278630828579382,-0.5968589760846863,1.1472313719602716,-0.42960711089205517,-0.5817568559431502,-2.1135879802136963,1.6293740854054577,-0.8578602430835726,1.1851451755777027,0.31994978840995353,-1.5716849316454489,-0.8798130295367419,-0.5912313881686457,-0.10619633358125818,-0.7736364884944952,0.5819598459510839
solar,0.27857258046967465,0.5938591394468877,0.7226918722541447,0.22665533085841288,-0.7672472184938289,0.24036391027013715,0.9091499027684693,-0.9263711986566634,-0.8350806869145087,0.6900967471436059,1.241867029121748,1.051199341601992,-0.509421662650042,0.9449300382061226,0.9988057667500936,-0.4545689902932692,0.7608129722762254,1.9022253587044797,0.6306732416459102,-1.0431130491497724,0.8174579245321523,0.35866751399084407,0.09073174740526622,0.04250869175442381,0.8356069143092277,1.3061964806125494,0.3817800354576777,-0.3160237168628135,0.5451082128151853,0.22945414577713558,-0.5646646260418643,1.7041982989846967,0.8743313948297851,-0.2076797714243087,-0.9046039066325412,-1.1799204025369017,-0.5118826564056483,-1.1131698711805844,0.25363280933139365,0.4456004403289361,1.2967727021323383,-0.6681209522225479,0.7505695844280967,0.6057306710169602,-0.9289226920590501,-0.7891153365050959,1.755161741192206,-0.6167650884591113,-0.6339190994796993,1.1899647401602336
system,-0.47193062567305644,0.3611350670124806,0.9783166754717358,0.02921514093282386,0.06504528609990223,0.29413821900645604,-0.9542561169498419,0.4533043220251367,-0.39356313200936377,2.0646942067148384,0.8663433323738503,0.13275816917716032,-0.4978650261661109,0.5525753699528718,-0.10502633842641161,-0.003253558786110848,1.1517544883815352,-0.5203310753757178,1.0069947436418585,-0.2154137903598059,0.2939548657598731,-0.48172224662608726,0.350052414834342,0.8857834774643663,0.09023796286344482,1.6380467149702143,0.0898877173313802,0.4220089266453868,-0.13067636388954346,0.31152588653680074,-1.2982508978112037,0.8914980757879616,-0.4456736510617113,-1.4427163202495732,0.28017403474470737,0.20533916634512425,-0.6775969754283728,0.9056718439951483,-0.7070598918743772,-0.3583717619084378,0.0018806806197325656,0.8714840485403897,0.4002227664932248,-0.06606773055971475,-0.2622815854604707,-0.06561424768116059,1.4755208409370781,0.841430132724455,-0.8930026369384245,1.153388597007685
rocky,-0.4560744948763297,0.1938214936484643,2.2347846590497724,0.03660079396187107,-1.8041778685479686,0.42896920894783985,-0.7335620438785829,-1.008216124103913,0.4183559249301999,-0.6335636947966714,0.21504727059688664,-0.04360489139146137,-1.2635413639554856,-0.6996094264347665,-0.006147185623229942,-1.3571635892854284,1.932052797950586,0.9177238232036357,0.9885911014883949,0.18934692575158338,-0.4081551834709298,-0.8431935705102102,0.19212434530945427,0.44649607316296386,1.1494101157225398,0.5837842087566475,-0.5811751429884173,-0.19363507953936943,-0.08769645576935771,0.4401880790269807,-1.5913721278460906,-0.21682062027620355,0.009549720772457035,-1.9670228758612514,0.45836945005476076,-1.423279730012166,0.5648955984196072,-0.5176761728472378,1.7879766064357607,-0.9100360193762359,1.391379001187108,-0.9982046354632451,1.3308901887376292,0.009228818514841326,-0.43162613102050845,-0.15310647170589511,-0.5641825842309683,-0.9633796611523782,-0.16146770297032037,0.06072948771792145
with,-0.48913729464152117,0.8300803371651002,-0.3023117141969578,1.01242265910813,0.31742889509988986,0.8748270124704652,-1.6094612094422402,2.252721700140693,0.5943358092915737,-0.12086052402955191,0.9471643316132021,0.08856020261455752,-0.943485904765972,0.7602880980203021,-0.5078477734107656,-1.6445387079416935,0.12514902545561513,-0.08476931148123622,0.8710250450454915,0.11709704478393672,-0.41948213252935906,-0.8766732296660356,-0.4520234307112982,2.003409187074957,1.006557132086384,0.7671273457622346,-0.4844826642458875,1.0506966000666536,-0.43310359620320027,0.4556033331200257,-0.8931945964996253,1.5726187517527517,-0.554995006394471,-1.5148114215914532,0.2627276978435134,0.3649786437890499,0.42070394087783847,-0.013574012796129875,0.3955470285527593,0.2798592800975991,0.03166037504422462,-0.5194594662211267,0.2989821003254816,-0.4386670493691355,1.3113761342619021,-0.4478344173668557,0.7059202437880303,-0.3346995332997058,1.1262839604701926,-0.3601236390969394
tectonic,0.08237495290479903,-0.5992564029428562,0.8472961636253903,0.00548749651923404,0.2825579815961705,-0.5488327207680078,0.31960552458761005,-0.6599193770991295,-0.8194597559682939,1.2619925761759254,0.6643206773186326,-0.08033650107483122,-0.4542441403706308,0.03545813082211033,1.4785077962094455,-0.35715122576034625,1.1563096821563783,0.5202540964302782,-0.5466400362922749,-1.0279057103177673,-0.7748827730584203,-1.6612975230022295,0.18227446542614928,0.6343093057526996,2.4313855517600595,0.7619619351582942,-1.6140149027373383,-1.149945589669315,-0.0824072002894832,0.6202189650793095,-1.5768003070776908,1.4577946030969233,-1.2261401200024697,-1.027179794336144,1.2281607796430076,-0.687721390691212,0.46889425273860363,-0.7076394413160071,1.1123724398091681,0.3991458033481517,-0.021802266233841246,-0.25975719670314895,1.061653047590567,-0.2013789924829994,-1.4986302064576242,0.5773274641334527,-0.9429219946892576,-1.3040866985424096,-1.3246815806141488,-0.9291057582345454
